{"learner":{"attributes":{"scikit_learn":"{\"_estimator_type\": \"classifier\"}"},"feature_names":[],"feature_types":[],"gradient_booster":{"model":{"cats":{"enc":[],"feature_segments":[],"sorted_idx":[]},"gbtree_model_param":{"num_parallel_tree":"1","num_trees":"1200"},"iteration_indptr":[0,6,12,18,24,30,36,42,48,54,60,66,72,78,84,90,96,102,108,114,120,126,132,138,144,150,156,162,168,174,180,186,192,198,204,210,216,222,228,234,240,246,252,258,264,270,276,282,288,294,300,306,312,318,324,330,336,342,348,354,360,366,372,378,384,390,396,402,408,414,420,426,432,438,444,450,456,462,468,474,480,486,492,498,504,510,516,522,528,534,540,546,552,558,564,570,576,582,588,594,600,606,612,618,624,630,636,642,648,654,660,666,672,678,684,690,696,702,708,714,720,726,732,738,744,750,756,762,768,774,780,786,792,798,804,810,816,822,828,834,840,846,852,858,864,870,876,882,888,894,900,906,912,918,924,930,936,942,948,954,960,966,972,978,984,990,996,1002,1008,1014,1020,1026,1032,1038,1044,1050,1056,1062,1068,1074,1080,1086,1092,1098,1104,1110,1116,1122,1128,1134,1140,1146,1152,1158,1164,1170,1176,1182,1188,1194,1200],"tree_info":[0,1,2,3,4,5,0,1,2,3,4,5,0,1,2,3,4,5,0,1,2,3,4,5,0,1,2,3,4,5,0,1,2,3,4,5,0,1,2,3,4,5,0,1,2,3,4,5,0,1,2,3,4,5,0,1,2,3,4,5,0,1,2,3,4,5,0,1,2,3,4,5,0,1,2,3,4,5,0,1,2,3,4,5,0,1,2,3,4,5,0,1,2,3,4,5,0,1,2,3,4,5,0,1,2,3,4,5,0,1,2,3,4,5,0,1,2,3,4,5,0,1,2,3,4,5,0,1,2,3,4,5,0,1,2,3,4,5,0,1,2,3,4,5,0,1,2,3,4,5,0,1,2,3,4,5,0,1,2,3,4,5,0,1,2,3,4,5,0,1,2,3,4,5,0,1,2,3,4,5,0,1,2,3,4,5,0,1,2,3,4,5,0,1,2,3,4,5,0,1,2,3,4,5,0,1,2,3,4,5,0,1,2,3,4,5,0,1,2,3,4,5,0,1,2,3,4,5,0,1,2,3,4,5,0,1,2,3,4,5,0,1,2,3,4,5,0,1,2,3,4,5,0,1,2,3,4,5,0,1,2,3,4,5,0,1,2,3,4,5,0,1,2,3,4,5,0,1,2,3,4,5,0,1,2,3,4,5,0,1,2,3,4,5,0,1,2,3,4,5,0,1,2,3,4,5,0,1,2,3,4,5,0,1,2,3,4,5,0,1,2,3,4,5,0,1,2,3,4,5,0,1,2,3,4,5,0,1,2,3,4,5,0,1,2,3,4,5,0,1,2,3,4,5,0,1,2,3,4,5,0,1,2,3,4,5,0,1,2,3,4,5,0,1,2,3,4,5,0,1,2,3,4,5,0,1,2,3,4,5,0,1,2,3,4,5,0,1,2,3,4,5,0,1,2,3,4,5,0,1,2,3,4,5,0,1,2,3,4,5,0,1,2,3,4,5,0,1,2,3,4,5,0,1,2,3,4,5,0,1,2,3,4,5,0,1,2,3,4,5,0,1,2,3,4,5,0,1,2,3,4,5,0,1,2,3,4,5,0,1,2,3,4,5,0,1,2,3,4,5,0,1,2,3,4,5,0,1,2,3,4,5,0,1,2,3,4,5,0,1,2,3,4,5,0,1,2,3,4,5,0,1,2,3,4,5,0,1,2,3,4,5,0,1,2,3,4,5,0,1,2,3,4,5,0,1,2,3,4,5,0,1,2,3,4,5,0,1,2,3,4,5,0,1,2,3,4,5,0,1,2,3,4,5,0,1,2,3,4,5,0,1,2,3,4,5,0,1,2,3,4,5,0,1,2,3,4,5,0,1,2,3,4,5,0,1,2,3,4,5,0,1,2,3,4,5,0,1,2,3,4,5,0,1,2,3,4,5,0,1,2,3,4,5,0,1,2,3,4,5,0,1,2,3,4,5,0,1,2,3,4,5,0,1,2,3,4,5,0,1,2,3,4,5,0,1,2,3,4,5,0,1,2,3,4,5,0,1,2,3,4,5,0,1,2,3,4,5,0,1,2,3,4,5,0,1,2,3,4,5,0,1,2,3,4,5,0,1,2,3,4,5,0,1,2,3,4,5,0,1,2,3,4,5,0,1,2,3,4,5,0,1,2,3,4,5,0,1,2,3,4,5,0,1,2,3,4,5,0,1,2,3,4,5,0,1,2,3,4,5,0,1,2,3,4,5,0,1,2,3,4,5,0,1,2,3,4,5,0,1,2,3,4,5,0,1,2,3,4,5,0,1,2,3,4,5,0,1,2,3,4,5,0,1,2,3,4,5,0,1,2,3,4,5,0,1,2,3,4,5,0,1,2,3,4,5,0,1,2,3,4,5,0,1,2,3,4,5,0,1,2,3,4,5,0,1,2,3,4,5,0,1,2,3,4,5,0,1,2,3,4,5,0,1,2,3,4,5,0,1,2,3,4,5,0,1,2,3,4,5,0,1,2,3,4,5,0,1,2,3,4,5,0,1,2,3,4,5,0,1,2,3,4,5,0,1,2,3,4,5,0,1,2,3,4,5,0,1,2,3,4,5,0,1,2,3,4,5,0,1,2,3,4,5,0,1,2,3,4,5,0,1,2,3,4,5,0,1,2,3,4,5,0,1,2,3,4,5,0,1,2,3,4,5,0,1,2,3,4,5,0,1,2,3,4,5,0,1,2,3,4,5,0,1,2,3,4,5,0,1,2,3,4,5,0,1,2,3,4,5,0,1,2,3,4,5,0,1,2,3,4,5,0,1,2,3,4,5,0,1,2,3,4,5,0,1,2,3,4,5,0,1,2,3,4,5,0,1,2,3,4,5,0,1,2,3,4,5,0,1,2,3,4,5,0,1,2,3,4,5,0,1,2,3,4,5,0,1,2,3,4,5,0,1,2,3,4,5,0,1,2,3,4,5,0,1,2,3,4,5,0,1,2,3,4,5,0,1,2,3,4,5,0,1,2,3,4,5,0,1,2,3,4,5,0,1,2,3,4,5,0,1,2,3,4,5,0,1,2,3,4,5,0,1,2,3,4,5,0,1,2,3,4,5,0,1,2,3,4,5,0,1,2,3,4,5,0,1,2,3,4,5,0,1,2,3,4,5,0,1,2,3,4,5,0,1,2,3,4,5,0,1,2,3,4,5,0,1,2,3,4,5,0,1,2,3,4,5,0,1,2,3,4,5,0,1,2,3,4,5],"trees":[{"base_weights":[-1.26125915E-2,-3.4389395E-2,1.0515152E0,4.83934E-1,1.3523442E0,1.217587E0,-3.362717E-2,-3.2427907E-2,1.5352383E0,1.3787218E0,8.0629534E-1,1.6100752E0,5.246849E-1,4.0146243E-3,1.4124515E0,3.792089E-1,7.289996E-2,1.6674305E0,6.5108156E-1,-2.540233E-1,1.0249525E0,7.2404064E-2,4.0146243E-3,3.508205E-2,-2.6231974E-2,8.561459E-2,4.4550866E-2,4.93237E-2,2.5500199E-3,-2.7547851E-2,2.6792398E-2,1.4225778E-2,6.664667E-2],"categories":[],"categories_nodes":[],"categories_segments":[],"categories_sizes":[],"default_left":[0,0,0,0,0,0,0,0,0,0,0,0,0,0,0,0,0,0,0,0,0,0,0,0,0,0,0,0,0,0,0,0,0],"id":0,"left_children":[1,-1,3,5,7,9,-1,-1,11,13,15,17,19,-1,21,23,-1,25,27,29,31,-1,-1,-1,-1,-1,-1,-1,-1,-1,-1,-1,-1],"loss_changes":[5.5041345E2,0E0,5.0123474E1,8.954778E1,7.192218E1,3.152481E0,0E0,0E0,1.2607544E1,1.849556E0,5.158616E0,7.9970703E0,5.616056E0,0E0,1.9544067E0,4.3746753E0,0E0,3.8791199E0,2.1553984E0,1.744416E0,1.5748625E0,0E0,0E0,0E0,0E0,0E0,0E0,0E0,0E0,0E0,0E0,0E0,0E0],"parents":[2147483647,0,0,2,2,3,3,4,4,5,5,8,8,9,9,10,10,11,11,12,12,14,14,15,15,17,17,18,18,19,19,20,20],"right_children":[2,-1,4,6,8,10,-1,-1,12,14,16,18,20,-1,22,24,-1,26,28,30,32,-1,-1,-1,-1,-1,-1,-1,-1,-1,-1,-1,-1],"split_conditions":[2.3450218E-1,-3.4389395E-2,3.5063332E-1,3.5063332E-1,3.5063332E-1,2.1788608E-1,-3.362717E-2,-3.2427907E-2,3.5032043E-1,1.7857144E-2,3.4782344E-1,3.5592443E-1,3.353249E-1,4.0146243E-3,9.5238096E-1,3.0979833E-1,7.289996E-2,3.5081956E-1,3.859556E-2,4.178982E-1,3.3035713E-1,7.2404064E-2,4.0146243E-3,3.508205E-2,-2.6231974E-2,8.561459E-2,4.4550866E-2,4.93237E-2,2.5500199E-3,-2.7547851E-2,2.6792398E-2,1.4225778E-2,6.664667E-2],"split_indices":[0,0,0,17,17,1,0,0,1,9,1,3,11,0,9,1,0,5,4,1,9,0,0,0,0,0,0,0,0,0,0,0,0],"split_type":[0,0,0,0,0,0,0,0,0,0,0,0,0,0,0,0,0,0,0,0,0,0,0,0,0,0,0,0,0,0,0,0,0],"sum_hessian":[7.640815E2,4.6769116E2,2.9639032E2,1.0357726E2,1.9281305E2,6.334148E1,4.0235783E1,1.5934963E1,1.768781E2,4.3821148E1,1.952033E1,1.6413013E2,1.2747971E1,1.1951222E0,4.2626026E1,1.2747971E1,6.7723594E0,1.5417078E2,9.9593525E0,5.178863E0,7.5691075E0,4.1430904E1,1.1951222E0,9.560978E0,3.1869926E0,1.4460979E2,9.560978E0,5.975611E0,3.9837408E0,3.9837408E0,1.1951222E0,2.7886186E0,4.780489E0],"tree_param":{"num_deleted":"0","num_feature":"18","num_nodes":"33","size_leaf_vector":"1"}},{"base_weights":[-2.2059891E-2,-6.0994494E-1,1.2350091E0,-3.2622945E-2,-7.6909303E-3,8.300214E-1,1.5458281E0,-1.4370303E-1,9.1540784E-1,1.3381986E-1,1.0393264E0,9.305588E-1,1.7004532E0,2.1146424E-1,-3.1652102E-1,-1.6977357E-2,7.2588325E-2,-3.5345423E-1,5.963942E-1,8.734888E-1,1.7945052E0,-2.2766663E-1,1.0787851E0,1.7497522E0,2.0784692E-1,-3.2048604E-1,6.132866E-1,-4.5349643E-1,-3.1750992E-2,-4.9966058E-1,2.1687519E-2,-2.2766663E-1,8.6620337E-1,1.533395E-1,1.0013175E0,2.1687519E-2,9.661029E-2,-2.101965E-2,7.061423E-3,-1.6977357E-2,1.1602899E0,1.1954086E-3,1.7763782E0,-2.101965E-2,4.217963E-2,-2.4270173E-2,7.061423E-3,-1.6977357E-2,4.4460796E-2,-2.9541327E-2,1.5035094E-3,3.2552656E-2,-1.8137801E-2,-2.917401E-2,1.1954086E-3,-2.101965E-2,7.061423E-3,5.2899897E-2,-1.6977357E-2,-2.4270173E-2,2.2494705E-2,6.052473E-2,2.4437414E-2,6.355467E-2,1.4390349E-2,9.258486E-2,5.6342173E-2],"categories":[],"categories_nodes":[],"categories_segments":[],"categories_sizes":[],"default_left":[0,0,0,0,0,0,0,0,0,0,0,0,0,0,0,0,0,0,0,0,0,0,0,0,0,0,0,0,0,0,0,0,0,0,0,0,0,0,0,0,0,0,0,0,0,0,0,0,0,0,0,0,0,0,0,0,0,0,0,0,0,0,0,0,0,0,0],"id":1,"left_children":[1,3,5,-1,7,9,11,13,15,17,19,21,23,25,27,-1,-1,29,31,33,35,37,39,41,43,45,47,49,51,53,-1,55,57,59,61,-1,-1,-1,-1,-1,63,-1,65,-1,-1,-1,-1,-1,-1,-1,-1,-1,-1,-1,-1,-1,-1,-1,-1,-1,-1,-1,-1,-1,-1,-1,-1],"loss_changes":[5.0909204E2,1.2012253E1,2.6348907E1,0E0,4.1441097E0,1.4065201E1,1.0122864E1,1.8297031E0,3.3468568E0,5.548152E0,7.8000107E0,4.8671E0,6.782654E0,2.3339963E0,7.547903E-1,0E0,0E0,1.6162425E0,2.9808264E0,5.6716003E0,1.5078087E0,3.3521798E-1,3.1729546E0,4.271393E0,2.048067E0,4.4622302E-1,1.8899021E0,8.969908E-1,1.9267027E0,4.8438954E-1,0E0,3.3521798E-1,2.5885015E0,2.2489386E0,5.1508102E0,0E0,0E0,0E0,0E0,0E0,1.8537521E0,0E0,2.43573E0,0E0,0E0,0E0,0E0,0E0,0E0,0E0,0E0,0E0,0E0,0E0,0E0,0E0,0E0,0E0,0E0,0E0,0E0,0E0,0E0,0E0,0E0,0E0,0E0],"parents":[2147483647,0,0,1,1,2,2,4,4,5,5,6,6,7,7,8,8,9,9,10,10,11,11,12,12,13,13,14,14,17,17,18,18,19,19,20,20,21,21,22,22,23,23,24,24,25,25,26,26,27,27,28,28,29,29,31,31,32,32,33,33,34,34,40,40,42,42],"right_children":[2,4,6,-1,8,10,12,14,16,18,20,22,24,26,28,-1,-1,30,32,34,36,38,40,42,44,46,48,50,52,54,-1,56,58,60,62,-1,-1,-1,-1,-1,64,-1,66,-1,-1,-1,-1,-1,-1,-1,-1,-1,-1,-1,-1,-1,-1,-1,-1,-1,-1,-1,-1,-1,-1,-1,-1],"split_conditions":[2.739111E-1,2.3171048E-1,5.714286E-1,-3.2622945E-2,3.669182E-1,3.2630938E-1,3.43175E-1,5.522959E-1,2.0588184E-2,5.672068E-2,5.5990446E-1,3.0998725E-1,9.29598E-1,5.595238E-1,7.5E-1,-1.6977357E-2,7.2588325E-2,8.75E-1,2.1775367E-2,2.555489E-3,2.9409283E-3,3.0327022E-1,8.3333336E-2,2.4989693E-5,7.8571427E-1,2.5743935E-1,2.8517174E-2,5.714286E-1,2.1428572E-1,5E-1,2.1687519E-2,2.4302255E-1,8.538865E-1,3.598499E-2,4.362862E-1,2.1687519E-2,9.661029E-2,-2.101965E-2,7.061423E-3,-1.6977357E-2,3.3353686E-1,1.1954086E-3,3.235216E-1,-2.101965E-2,4.217963E-2,-2.4270173E-2,7.061423E-3,-1.6977357E-2,4.4460796E-2,-2.9541327E-2,1.5035094E-3,3.2552656E-2,-1.8137801E-2,-2.917401E-2,1.1954086E-3,-2.101965E-2,7.061423E-3,5.2899897E-2,-1.6977357E-2,-2.4270173E-2,2.2494705E-2,6.052473E-2,2.4437414E-2,6.355467E-2,1.4390349E-2,9.258486E-2,5.6342173E-2],"split_indices":[1,1,8,0,4,1,1,6,3,4,1,7,6,10,16,0,0,15,5,5,3,1,15,2,8,1,0,8,8,8,0,0,6,3,1,0,0,0,0,0,2,0,0,0,0,0,0,0,0,0,0,0,0,0,0,0,0,0,0,0,0,0,0,0,0,0,0],"split_type":[0,0,0,0,0,0,0,0,0,0,0,0,0,0,0,0,0,0,0,0,0,0,0,0,0,0,0,0,0,0,0,0,0,0,0,0,0,0,0,0,0,0,0,0,0,0,0,0,0,0,0,0,0,0,0,0,0,0,0,0,0,0,0,0,0,0,0],"sum_hessian":[6.8686255E2,4.683481E2,2.1851445E2,4.3738892E2,3.0959215E1,9.6477554E1,1.220369E2,2.7719297E1,3.2399178E0,2.2679424E1,7.379813E1,2.5919342E1,9.611756E1,8.999772E0,1.8719524E1,1.0799726E0,2.1599452E0,1.1159717E1,1.1519708E1,6.227842E1,1.1519708E1,2.879927E0,2.3039415E1,9.287764E1,3.2399178E0,3.9598994E0,5.039872E0,1.223969E1,6.4798355E0,9.719753E0,1.4399635E0,2.879927E0,8.639781E0,9.719753E0,5.2558666E1,1.4399635E0,1.0079744E1,1.7999543E0,1.0799726E0,1.0799726E0,2.1959442E1,1.4399635E0,9.143768E1,1.7999543E0,1.4399635E0,2.879927E0,1.0799726E0,1.0799726E0,3.9598994E0,9.359762E0,2.879927E0,1.7999543E0,4.679881E0,8.27979E0,1.4399635E0,1.7999543E0,1.0799726E0,7.5598083E0,1.0799726E0,2.879927E0,6.8398266E0,3.6359077E1,1.6199589E1,1.9079515E1,2.879927E0,8.027796E1,1.1159717E1],"tree_param":{"num_deleted":"0","num_feature":"18","num_nodes":"67","size_leaf_vector":"1"}},{"base_weights":[-7.1141403E-3,6.140008E-1,-1.7780924E-1,8.9529586E-1,-3.0011326E-1,-1.0181148E-2,-4.2215466E-1,1.2761921E0,-9.0708815E-2,1.8600683E-1,-4.406565E-1,3.0993786E-1,-3.3528164E-1,-2.5107813E-1,-4.86695E-1,1.696526E0,1.9777411E-1,4.4063345E-2,-2.4230039E-1,5.0043076E-2,-2.1887207E-2,-2.6811669E-2,-1.6484116E-1,7.281062E-1,-2.9489633E-1,1.7050958E-1,-3.931184E-1,1.4767039E-2,-5.050581E-1,-5.112517E-1,-1.2534265E-1,1.9690682E0,-2.9283276E-1,1.0219954E0,-2.6006684E-1,1.738902E-1,-4.5909014E-1,-2.227688E-2,1.5530594E-2,1.2567599E0,-2.1512565E-1,2.5795072E-1,-4.7358787E-1,-3.3499572E-1,6.8759996E-1,-2.5963232E-1,-5.2428037E-1,-3.8961965E-1,6.5191954E-1,-2.7534425E-2,7.147938E-3,-5.588461E-1,-3.1895354E-1,2.8112803E-2,-2.3939073E-2,2.6019437E-3,1.0793841E-1,7.147938E-3,-2.227688E-2,8.187463E-2,-1.8089991E-2,-2.5611183E-2,2.0607801E-2,2.9197026E-2,-2.0954205E-2,-2.6502484E-2,3.611015E-3,-7.557361E-3,7.8628756E-2,2.2122953E-3,-2.2608005E-2,4.5701776E-2,-1.718343E-2,-3.3534397E-3,-2.6326044E-2,-2.3484768E-2,7.147938E-3,-5.560727E-3,6.216981E-2,-1.7198779E-2,2.9197026E-2,-2.085534E-3,-2.8307412E-2,-2.5946805E-2,-3.3534397E-3,8.133462E-2,-2.2940574E-2,3.611015E-3,-2.8595349E-2,-3.53501E-3,-2.6450986E-2],"categories":[],"categories_nodes":[],"categories_segments":[],"categories_sizes":[],"default_left":[0,0,0,0,0,0,0,0,0,0,0,0,0,0,0,0,0,0,0,0,0,0,0,0,0,0,0,0,0,0,0,0,0,0,0,0,0,0,0,0,0,0,0,0,0,0,0,0,0,0,0,0,0,0,0,0,0,0,0,0,0,0,0,0,0,0,0,0,0,0,0,0,0,0,0,0,0,0,0,0,0,0,0,0,0,0,0,0,0,0,0],"id":2,"left_children":[1,3,5,7,9,11,13,15,17,19,21,23,25,27,29,31,33,-1,35,-1,-1,-1,37,39,41,43,45,47,49,51,53,55,57,59,61,63,65,-1,-1,67,69,71,73,75,77,79,81,83,85,-1,-1,87,89,-1,-1,-1,-1,-1,-1,-1,-1,-1,-1,-1,-1,-1,-1,-1,-1,-1,-1,-1,-1,-1,-1,-1,-1,-1,-1,-1,-1,-1,-1,-1,-1,-1,-1,-1,-1,-1,-1],"loss_changes":[4.76172E1,2.516557E1,1.4424592E1,2.8016907E1,1.6897492E0,2.1954885E1,1.4601669E0,2.3986359E1,3.4013536E0,3.478034E0,4.0066385E-1,2.7103252E1,3.1284218E0,2.7974877E0,8.498192E-1,2.1437515E1,6.371515E0,0E0,1.8392937E0,0E0,0E0,0E0,9.682485E-1,3.1756279E1,4.4854956E0,3.2196896E0,1.5134192E0,5.7062488E0,7.0443916E-1,7.014046E-1,2.1838498E0,1.2240875E1,4.301417E-1,5.686547E0,2.1094217E0,2.0450146E0,5.320418E-1,0E0,0E0,1.8294624E1,1.466805E0,4.8281703E0,6.905389E-1,4.8274237E-1,2.7936914E0,3.6640534E0,9.16687E-1,5.312555E-1,1.0046837E1,0E0,0E0,6.653595E-1,1.0785036E0,0E0,0E0,0E0,0E0,0E0,0E0,0E0,0E0,0E0,0E0,0E0,0E0,0E0,0E0,0E0,0E0,0E0,0E0,0E0,0E0,0E0,0E0,0E0,0E0,0E0,0E0,0E0,0E0,0E0,0E0,0E0,0E0,0E0,0E0,0E0,0E0,0E0,0E0],"parents":[2147483647,0,0,1,1,2,2,3,3,4,4,5,5,6,6,7,7,8,8,9,9,10,10,11,11,12,12,13,13,14,14,15,15,16,16,18,18,22,22,23,23,24,24,25,25,26,26,27,27,28,28,29,29,30,30,31,31,32,32,33,33,34,34,35,35,36,36,39,39,40,40,41,41,42,42,43,43,44,44,45,45,46,46,47,47,48,48,51,51,52,52],"right_children":[2,4,6,8,10,12,14,16,18,20,22,24,26,28,30,32,34,-1,36,-1,-1,-1,38,40,42,44,46,48,50,52,54,56,58,60,62,64,66,-1,-1,68,70,72,74,76,78,80,82,84,86,-1,-1,88,90,-1,-1,-1,-1,-1,-1,-1,-1,-1,-1,-1,-1,-1,-1,-1,-1,-1,-1,-1,-1,-1,-1,-1,-1,-1,-1,-1,-1,-1,-1,-1,-1,-1,-1,-1,-1,-1,-1],"split_conditions":[2.5E-1,2.8985405E-1,2.3450218E-1,2.9795587E-1,3.3117312E-1,2.4895468E-1,3.3383465E-1,2.694766E-1,1.6713678E-3,6.4681426E-2,7.1428573E-1,3.0130622E-1,2.9408693E-1,1.5594193E-1,9.285714E-1,5.008164E-1,2.2536239E-2,4.4063345E-2,4.2857143E-1,5.0043076E-2,-2.1887207E-2,-2.6811669E-2,8E-1,3.321656E-1,3.6986247E-1,2.9239145E-1,4.1578367E-1,3.3353686E-1,3.292893E-1,7.357126E-1,1.806039E-2,2.7507153E-1,5.3397114E-3,6.406356E-1,5.00543E-1,7.73746E-2,1.4712645E-1,-2.227688E-2,1.5530594E-2,3.148361E-1,4.2857292E-1,5.9367947E-2,1.9012302E-3,6.142513E-1,2.648581E-1,4.2788225E-1,3.0979833E-1,3.0980077E-1,1.7896654E-1,-2.7534425E-2,7.147938E-3,2.4780439E-1,5.3955473E-2,2.8112803E-2,-2.3939073E-2,2.6019437E-3,1.0793841E-1,7.147938E-3,-2.227688E-2,8.187463E-2,-1.8089991E-2,-2.5611183E-2,2.0607801E-2,2.9197026E-2,-2.0954205E-2,-2.6502484E-2,3.611015E-3,-7.557361E-3,7.8628756E-2,2.2122953E-3,-2.2608005E-2,4.5701776E-2,-1.718343E-2,-3.3534397E-3,-2.6326044E-2,-2.3484768E-2,7.147938E-3,-5.560727E-3,6.216981E-2,-1.7198779E-2,2.9197026E-2,-2.085534E-3,-2.8307412E-2,-2.5946805E-2,-3.3534397E-3,8.133462E-2,-2.2940574E-2,3.611015E-3,-2.8595349E-2,-3.53501E-3,-2.6450986E-2],"split_indices":[15,0,0,1,0,1,0,5,5,1,13,3,17,1,8,3,0,0,8,0,0,0,14,5,17,1,17,17,0,12,1,17,1,12,12,3,0,0,0,17,5,5,5,7,17,1,1,17,3,0,0,7,3,0,0,0,0,0,0,0,0,0,0,0,0,0,0,0,0,0,0,0,0,0,0,0,0,0,0,0,0,0,0,0,0,0,0,0,0,0,0],"split_type":[0,0,0,0,0,0,0,0,0,0,0,0,0,0,0,0,0,0,0,0,0,0,0,0,0,0,0,0,0,0,0,0,0,0,0,0,0,0,0,0,0,0,0,0,0,0,0,0,0,0,0,0,0,0,0,0,0,0,0,0,0,0,0,0,0,0,0,0,0,0,0,0,0,0,0,0,0,0,0,0,0,0,0,0,0,0,0,0,0,0,0],"sum_hessian":[4.4709894E2,9.582386E1,3.512751E2,7.329102E1,2.2532839E1,2.0896243E2,1.4231267E2,5.2655685E1,2.0635336E1,4.980943E0,1.7551895E1,1.0531137E2,1.03651054E2,4.0321922E1,1.01990746E2,3.747567E1,1.5180017E1,2.13469E0,1.8500647E1,1.8975022E0,3.083441E0,1.2333764E1,5.218131E0,6.2143196E1,4.3168175E1,1.0436262E1,9.32148E1,2.0160961E1,2.0160961E1,9.51123E1,6.8784456E0,3.29691E1,4.5065675E0,4.980943E0,1.0199074E1,6.40407E0,1.2096577E1,3.320629E0,1.8975022E0,3.961036E1,2.2532839E1,1.0436262E1,3.2731915E1,5.455319E0,4.980943E0,4.7674744E1,4.5540054E1,1.2570952E1,7.5900087E0,1.8975021E1,1.1859388E0,7.471415E1,2.0398148E1,2.13469E0,4.7437553E0,3.083441E0,2.988566E1,1.1859388E0,3.320629E0,3.320629E0,1.6603144E0,7.5900087E0,2.6090655E0,3.7950044E0,2.6090655E0,1.06734495E1,1.4231267E0,7.352821E0,3.2257538E1,1.1147825E1,1.1385014E1,4.7437553E0,5.692507E0,4.032192E0,2.869972E1,4.26938E0,1.1859388E0,2.3718777E0,2.6090655E0,4.3879738E1,3.7950044E0,3.7950044E0,4.174505E1,8.53876E0,4.032192E0,3.7950044E0,3.7950044E0,1.4231267E0,7.329102E1,9.961886E0,1.0436262E1],"tree_param":{"num_deleted":"0","num_feature":"18","num_nodes":"91","size_leaf_vector":"1"}},{"base_weights":[-8.218379E-3,-5.38225E-1,1.6429248E0,-2.9592847E-2,2.9317418E-1,1.0618976E0,2.0804164E0,-3.7277665E-2,1.2445003E0,1.2961712E0,5.606029E-1,2.2485063E0,4.0112942E-1,-2.0987715E-1,5.069613E-2,-1.6921386E-2,1.7341542E0,1.4465446E0,5.814119E-1,9.976864E-1,-2.5377604E-1,2.3856936E0,9.250538E-1,7.588612E-2,-3.0435887E-1,3.963622E-2,-3.6306667E-1,8.973824E-3,1.0547262E-1,4.566081E-3,1.5056797E0,1.3440024E0,-9.91195E-2,1.3109212E0,-1.5736729E-1,-2.4762668E-2,2.034852E-2,2.5168214E0,9.274301E-1,1.6990663E0,-1.0674221E-2,-2.3005426E-2,8.973824E-3,-2.387434E-2,1.570311E-2,3.5694506E-2,8.3224E-2,2.034852E-2,9.051595E-2,-2.2582537E-2,3.3227418E-2,3.4126234E-3,8.969641E-2,-1.8226884E-2,8.973824E-3,4.1685123E-2,1.3000111E-1,-1.5279769E-2,6.1758965E-2,1.0790558E-1,8.973824E-3,-2.0916415E-2,3.3227418E-2],"categories":[],"categories_nodes":[],"categories_segments":[],"categories_sizes":[],"default_left":[0,0,0,0,0,0,0,0,0,0,0,0,0,0,0,0,0,0,0,0,0,0,0,0,0,0,0,0,0,0,0,0,0,0,0,0,0,0,0,0,0,0,0,0,0,0,0,0,0,0,0,0,0,0,0,0,0,0,0,0,0,0,0],"id":3,"left_children":[1,3,5,-1,7,9,11,13,15,17,19,21,23,25,-1,-1,27,29,31,33,35,37,39,-1,41,-1,43,-1,-1,-1,45,47,49,51,53,-1,-1,55,57,59,61,-1,-1,-1,-1,-1,-1,-1,-1,-1,-1,-1,-1,-1,-1,-1,-1,-1,-1,-1,-1,-1,-1],"loss_changes":[4.5185043E2,1.7601547E1,2.9683807E1,0E0,7.7025313E0,5.8423996E0,1.900708E1,3.6685054E0,5.4759426E0,3.174244E0,7.2217007E0,9.394287E0,6.4761076E0,2.927782E0,0E0,0E0,2.527545E0,2.2821732E0,4.370822E0,4.8889103E0,1.4197084E0,8.6154175E0,5.547675E0,0E0,4.9791646E-1,0E0,1.3583195E0,0E0,0E0,0E0,2.4412155E0,9.7579E-1,1.7125089E0,6.0529385E0,3.2040817E-1,0E0,0E0,5.1078796E0,2.77102E0,2.5317183E0,1.5029045E0,0E0,0E0,0E0,0E0,0E0,0E0,0E0,0E0,0E0,0E0,0E0,0E0,0E0,0E0,0E0,0E0,0E0,0E0,0E0,0E0,0E0,0E0],"parents":[2147483647,0,0,1,1,2,2,4,4,5,5,6,6,7,7,8,8,9,9,10,10,11,11,12,12,13,13,16,16,17,17,18,18,19,19,20,20,21,21,22,22,24,24,26,26,30,30,31,31,32,32,33,33,34,34,37,37,38,38,39,39,40,40],"right_children":[2,4,6,-1,8,10,12,14,16,18,20,22,24,26,-1,-1,28,30,32,34,36,38,40,-1,42,-1,44,-1,-1,-1,46,48,50,52,54,-1,-1,56,58,60,62,-1,-1,-1,-1,-1,-1,-1,-1,-1,-1,-1,-1,-1,-1,-1,-1,-1,-1,-1,-1,-1,-1],"split_conditions":[2.7925003E-1,2.3834683E-1,3.8646847E-1,-2.9592847E-2,1.1962772E-1,1.9010732E-1,3.406883E-1,4.710274E-1,3.3333334E-1,2.9656714E-1,5.0618523E-1,3.0175358E-1,1.1762478E-2,2.4256594E-1,5.069613E-2,-1.6921386E-2,5.7480705E-1,1.6948201E-3,1.806039E-2,6.5076417E-1,7.7383626E-1,3.252199E-1,4.6529117E-1,7.588612E-2,4.5566723E-1,3.963622E-2,5.0556076E-1,8.973824E-3,1.0547262E-1,4.566081E-3,2.857143E-1,7.437968E-2,8.9910334E-1,8.913679E-3,4.368831E-1,-2.4762668E-2,2.034852E-2,5.656678E-4,4.4136815E-4,9.051339E-1,8.1859857E-1,-2.3005426E-2,8.973824E-3,-2.387434E-2,1.570311E-2,3.5694506E-2,8.3224E-2,2.034852E-2,9.051595E-2,-2.2582537E-2,3.3227418E-2,3.4126234E-3,8.969641E-2,-1.8226884E-2,8.973824E-3,4.1685123E-2,1.3000111E-1,-1.5279769E-2,6.1758965E-2,1.0790558E-1,8.973824E-3,-2.0916415E-2,3.3227418E-2],"split_indices":[3,3,3,0,2,0,1,0,10,2,11,0,5,3,0,0,6,1,1,7,6,2,3,0,1,0,1,0,0,0,8,0,6,5,0,0,0,5,0,12,6,0,0,0,0,0,0,0,0,0,0,0,0,0,0,0,0,0,0,0,0,0,0],"split_type":[0,0,0,0,0,0,0,0,0,0,0,0,0,0,0,0,0,0,0,0,0,0,0,0,0,0,0,0,0,0,0,0,0,0,0,0,0,0,0,0,0,0,0,0,0,0,0,0,0,0,0,0,0,0,0,0,0,0,0,0,0,0,0],"sum_hessian":[5.1432117E2,3.8985437E2,1.2446678E2,3.6650027E2,2.3354109E1,5.493523E1,6.953155E1,1.8046356E1,5.3077517E0,3.63581E1,1.8577131E1,6.289686E1,6.63469E0,1.6188643E1,1.8577132E0,1.3269379E0,3.980814E0,2.9192635E1,7.165465E0,1.1942442E1,6.63469E0,5.626217E1,6.63469E0,2.1231008E0,4.511589E0,1.5923256E0,1.4596317E1,1.0615504E0,2.9192636E0,1.3269379E0,2.7865698E1,2.9192636E0,4.2462015E0,9.288566E0,2.6538758E0,5.042364E0,1.5923256E0,5.095442E1,5.3077517E0,3.1846511E0,3.4500387E0,3.4500387E0,1.0615504E0,1.2738605E1,1.8577132E0,5.5731397E0,2.2292559E1,1.5923256E0,1.3269379E0,3.1846511E0,1.0615504E0,2.9192636E0,6.3693023E0,1.5923256E0,1.0615504E0,2.9192636E0,4.8035156E1,1.0615504E0,4.2462015E0,2.1231008E0,1.0615504E0,2.3884883E0,1.0615504E0],"tree_param":{"num_deleted":"0","num_feature":"18","num_nodes":"63","size_leaf_vector":"1"}},{"base_weights":[-4.5955563E-3,-4.3780875E-1,2.6345055E0,-2.730698E-2,4.2632318E-1,-2.3571057E-2,3.1509342E0,2.181259E0,-2.6083892E-2,3.6033776E0,3.3016157E-1,2.6068094E0,1.3763967E-2,3.9973743E0,8.6282873E-1,-2.0086326E-2,1.0027031E0,1.2033875E0,3.047205E0,4.328089E0,1.3330781E0,9.457063E-2,-1.8997297E-2,6.408787E-3,7.195404E-2,8.583176E-2,6.408787E-3,1.6971605E-1,5.0105628E-2,2.352277E-1,5.65512E-2,-1.5439632E-2,1.03895605E-1],"categories":[],"categories_nodes":[],"categories_segments":[],"categories_sizes":[],"default_left":[0,0,0,0,0,0,0,0,0,0,0,0,0,0,0,0,0,0,0,0,0,0,0,0,0,0,0,0,0,0,0,0,0],"id":4,"left_children":[1,3,5,-1,7,-1,9,11,-1,13,15,17,-1,19,21,-1,23,25,27,29,31,-1,-1,-1,-1,-1,-1,-1,-1,-1,-1,-1,-1],"loss_changes":[3.5547916E2,2.523423E1,7.180826E1,0E0,5.1569515E1,0E0,4.695279E1,8.062271E0,0E0,3.154306E1,3.5112352E0,1.7292976E0,0E0,1.8953186E1,7.555828E0,0E0,1.1806114E0,1.842813E0,8.5279083E-1,2.4184906E1,6.197818E0,0E0,0E0,0E0,0E0,0E0,0E0,0E0,0E0,0E0,0E0,0E0,0E0],"parents":[2147483647,0,0,1,1,2,2,4,4,6,6,7,7,9,9,10,10,11,11,13,13,14,14,16,16,17,17,18,18,19,19,20,20],"right_children":[2,4,6,-1,8,-1,10,12,-1,14,16,18,-1,20,22,-1,24,26,28,30,32,-1,-1,-1,-1,-1,-1,-1,-1,-1,-1,-1,-1],"split_conditions":[3.3786127E-1,2.4625283E-1,3.3940226E-1,-2.730698E-2,3.3579198E-1,-2.3571057E-2,3.4802234E-1,2.2015071E-1,-2.6083892E-2,3.6839914E-1,4.375E-1,2.857143E-1,1.3763967E-2,3.4327757E-1,5.714286E-1,-2.0086326E-2,2.2686785E-2,1.6801435E-1,3.1147525E-1,3.6087006E-1,1.5625518E-2,9.457063E-2,-1.8997297E-2,6.408787E-3,7.195404E-2,8.583176E-2,6.408787E-3,1.6971605E-1,5.0105628E-2,2.352277E-1,5.65512E-2,-1.5439632E-2,1.03895605E-1],"split_indices":[4,4,17,0,17,0,0,3,0,1,10,8,0,5,8,0,1,1,17,3,1,0,0,0,0,0,0,0,0,0,0,0,0],"split_type":[0,0,0,0,0,0,0,0,0,0,0,0,0,0,0,0,0,0,0,0,0,0,0,0,0,0,0,0,0,0,0,0,0],"sum_hessian":[3.0891672E2,2.6607425E2,4.2842464E1,2.3676099E2,2.9313265E1,6.1203523E0,3.6722115E1,9.824776E0,1.948849E1,3.140707E1,5.3150425E0,7.7309713E0,2.0938046E0,2.70584E1,4.3486714E0,2.7380524E0,2.5769904E0,2.7380524E0,4.992919E0,2.3515038E1,3.5433617E0,2.0938046E0,2.2548666E0,1.2884952E0,1.2884952E0,1.4495571E0,1.2884952E0,3.7044237E0,1.2884952E0,2.0615923E1,2.8991141E0,1.2884952E0,2.2548666E0],"tree_param":{"num_deleted":"0","num_feature":"18","num_nodes":"33","size_leaf_vector":"1"}},{"base_weights":[1.0674441E-2,-5.3725266E-1,2.0191796E0,-2.7885346E-2,-4.0132903E-2,1.1539508E0,2.5930958E0,1.2503086E-1,-2.5547747E-2,2.2564695E0,-2.6007328E-2,-2.5003333E-2,3.2756298E0,-1.5995152E-2,2.4531155E0,3.5533645E0,-1.5549521E-1,2.6848858E-2,2.566742E0,3.8910925E0,4.270355E-1,8.397547E-3,-1.7678283E-2,3.1724207E-2,1.3307323E-1,1.9985813E-1,8.701094E-2,5.0473988E-2,-1.7678283E-2],"categories":[],"categories_nodes":[],"categories_segments":[],"categories_sizes":[],"default_left":[0,0,0,0,0,0,0,0,0,0,0,0,0,0,0,0,0,0,0,0,0,0,0,0,0,0,0,0,0],"id":5,"left_children":[1,3,5,-1,7,9,11,-1,-1,13,-1,-1,15,-1,17,19,21,-1,23,25,27,-1,-1,-1,-1,-1,-1,-1,-1],"loss_changes":[4.0927945E2,2.9488068E0,3.6588654E1,0E0,1.638058E1,6.3169518E1,1.01117096E2,0E0,0E0,1.1139832E1,0E0,0E0,3.7464325E1,0E0,2.781334E0,3.6217804E1,3.0658817E-1,0E0,1.5639191E0,4.028015E-1,2.4578803E0,0E0,0E0,0E0,0E0,0E0,0E0,0E0,0E0],"parents":[2147483647,0,0,1,1,2,2,4,4,5,5,6,6,9,9,12,12,14,14,15,15,16,16,18,18,19,19,20,20],"right_children":[2,4,6,-1,8,10,12,-1,-1,14,-1,-1,16,-1,18,20,22,-1,24,26,28,-1,-1,-1,-1,-1,-1,-1,-1],"split_conditions":[2.694766E-1,2.4048829E-1,3.6433005E-1,-2.7885346E-2,2.6790652E-1,3.6375436E-1,3.624567E-1,1.2503086E-1,-2.5547747E-2,2.6790652E-1,-2.6007328E-2,-2.5003333E-2,3.8778803E-1,-1.5995152E-2,1.9383677E-3,3.7455526E-1,1.3871087E-2,2.6848858E-2,4.3356985E-1,3.4673002E-1,4.5833334E-1,8.397547E-3,-1.7678283E-2,3.1724207E-2,1.3307323E-1,1.9985813E-1,8.701094E-2,5.0473988E-2,-1.7678283E-2],"split_indices":[5,5,5,0,17,17,17,0,0,17,0,0,0,0,0,1,1,0,6,3,15,0,0,0,0,0,0,0,0],"split_type":[0,0,0,0,0,0,0,0,0,0,0,0,0,0,0,0,0,0,0,0,0,0,0,0,0,0,0,0,0],"sum_hessian":[3.699126E2,2.9120374E2,7.870886E1,2.7957846E2,1.1625279E1,3.2588898E1,4.611996E1,1.1434702E0,1.048181E1,1.9438992E1,1.3149906E1,8.3854475E0,3.7734516E1,1.3340485E0,1.8104944E1,3.487584E1,2.8586752E0,1.3340485E0,1.6770895E1,3.125485E1,3.6209888E0,1.1434702E0,1.7152052E0,1.1434702E0,1.5627425E1,2.896791E1,2.2869403E0,1.9057835E0,1.7152052E0],"tree_param":{"num_deleted":"0","num_feature":"18","num_nodes":"29","size_leaf_vector":"1"}},{"base_weights":[-2.0597354E-2,-3.3969905E-2,9.7728664E-1,4.9150738E-1,1.2378619E0,6.641133E-1,-1.2528358E-1,1.32274E0,4.7132388E-1,8.403381E-1,3.8053113E-1,-3.357325E-1,5.4105693E-1,1.4056264E0,8.490565E-1,8.0085003E-1,-6.1434258E-2,1.1774015E0,5.835686E-1,-2.593481E-2,4.8861277E-1,2.6384195E-2,-4.6851677E-1,-1.8649621E-1,5.184992E-2,1.4724207E0,9.855466E-1,1.2534368E0,2.7041695E-1,1.0371159E0,-1.887539E-1,-4.1581306E-1,5.2411705E-1,5.0285906E-3,6.550109E-2,1.3789393E-2,4.5043457E-2,-2.328631E-2,2.856882E-2,-2.8568968E-2,1.0286552E-2,3.986783E-3,-1.8466178E-2,3.083179E-2,7.479867E-2,1.0798205E-2,5.690701E-2,6.847575E-2,2.5706843E-2,4.721825E-2,-4.5935013E-3,-1.9822593E-3,6.1442684E-2,3.835853E-3,-1.8509233E-2,4.062196E-3,-2.7556201E-2,5.290967E-2,-1.8485608E-2],"categories":[],"categories_nodes":[],"categories_segments":[],"categories_sizes":[],"default_left":[0,0,0,0,0,0,0,0,0,0,0,0,0,0,0,0,0,0,0,0,0,0,0,0,0,0,0,0,0,0,0,0,0,0,0,0,0,0,0,0,0,0,0,0,0,0,0,0,0,0,0,0,0,0,0,0,0,0,0],"id":6,"left_children":[1,-1,3,5,7,9,11,13,15,17,19,21,23,25,27,29,31,33,35,-1,37,-1,39,41,-1,43,45,47,49,51,53,55,57,-1,-1,-1,-1,-1,-1,-1,-1,-1,-1,-1,-1,-1,-1,-1,-1,-1,-1,-1,-1,-1,-1,-1,-1,-1,-1],"loss_changes":[5.0141284E2,0E0,3.778528E1,1.1533552E1,1.217804E1,3.8878098E0,3.597454E0,5.739746E0,3.7654743E0,3.735405E0,3.567237E0,2.4403312E0,2.4411426E0,2.723053E0,6.4055367E0,3.2703638E0,2.0893064E0,2.8832664E0,2.7776985E0,0E0,2.7108798E0,0E0,1.3041408E0,1.9361174E-1,0E0,1.6239014E0,2.506052E0,7.282982E-1,3.2931476E0,2.2721558E0,1.912186E-1,4.6014333E-1,2.225556E0,0E0,0E0,0E0,0E0,0E0,0E0,0E0,0E0,0E0,0E0,0E0,0E0,0E0,0E0,0E0,0E0,0E0,0E0,0E0,0E0,0E0,0E0,0E0,0E0,0E0,0E0],"parents":[2147483647,0,0,2,2,3,3,4,4,5,5,6,6,7,7,8,8,9,9,10,10,11,11,12,12,13,13,14,14,15,15,16,16,17,17,18,18,20,20,22,22,23,23,25,25,26,26,27,27,28,28,29,29,30,30,31,31,32,32],"right_children":[2,-1,4,6,8,10,12,14,16,18,20,22,24,26,28,30,32,34,36,-1,38,-1,40,42,-1,44,46,48,50,52,54,56,58,-1,-1,-1,-1,-1,-1,-1,-1,-1,-1,-1,-1,-1,-1,-1,-1,-1,-1,-1,-1,-1,-1,-1,-1,-1,-1],"split_conditions":[2.3450218E-1,-3.3969905E-2,3.5063332E-1,3.0979833E-1,2.739111E-1,5.714286E-1,3.235216E-1,2.5870156E-1,4.2664367E-1,4.2014328E-1,1.2107136E-1,3.0105227E-1,2.7993777E-1,2.9656714E-1,7.473496E-1,3.895332E-2,2.6201077E-2,1.0974541E-2,1.35642E-1,-2.593481E-2,4.3787163E-1,2.6384195E-2,2.1026345E-1,4.0838546E-1,5.184992E-2,1.4199268E-4,3.8084885E-1,4.710274E-1,4E-1,2.8647387E-1,3.2993278E-1,1.6108175E-1,7.916667E-1,5.0285906E-3,6.550109E-2,1.3789393E-2,4.5043457E-2,-2.328631E-2,2.856882E-2,-2.8568968E-2,1.0286552E-2,3.986783E-3,-1.8466178E-2,3.083179E-2,7.479867E-2,1.0798205E-2,5.690701E-2,6.847575E-2,2.5706843E-2,4.721825E-2,-4.5935013E-3,-1.9822593E-3,6.1442684E-2,3.835853E-3,-1.8509233E-2,4.062196E-3,-2.7556201E-2,5.290967E-2,-1.8485608E-2],"split_indices":[0,0,0,1,1,8,0,3,0,12,11,7,12,2,6,3,2,1,3,0,6,0,3,7,0,2,0,0,14,1,1,11,15,0,0,0,0,0,0,0,0,0,0,0,0,0,0,0,0,0,0,0,0,0,0,0,0,0,0],"split_type":[0,0,0,0,0,0,0,0,0,0,0,0,0,0,0,0,0,0,0,0,0,0,0,0,0,0,0,0,0,0,0,0,0,0,0,0,0,0,0,0,0,0,0,0,0,0,0,0,0,0,0,0,0,0,0,0,0,0,0],"sum_hessian":[7.607033E2,4.5839267E2,3.0231067E2,1.065536E2,1.9575706E2,8.319512E1,2.335847E1,1.7558867E2,2.0168386E1,5.009906E1,3.309606E1,1.8128986E1,5.229485E0,1.4776491E2,2.7823769E1,1.215003E1,8.018356E0,2.0112188E1,2.9986874E1,3.1434865E0,2.9952576E1,2.0200193E0,1.6108967E1,2.372682E0,2.8568027E0,1.2533161E2,2.2433289E1,1.5691582E1,1.2132186E1,9.769557E0,2.3804734E0,5.1758075E0,2.8425488E0,2.3981764E0,1.7714012E1,1.61706E1,1.3816272E1,2.0210354E0,2.7931541E1,1.4109069E1,1.9998983E0,1.1955724E0,1.1771097E0,4.0849986E0,1.2124661E2,4.111724E0,1.8321566E1,1.2825402E1,2.8661795E0,3.6799133E0,8.452273E0,1.5966004E0,8.172956E0,1.2007222E0,1.1797512E0,1.1929933E0,3.9828143E0,1.6642481E0,1.1783006E0],"tree_param":{"num_deleted":"0","num_feature":"18","num_nodes":"59","size_leaf_vector":"1"}},{"base_weights":[-6.641935E-3,-6.1782753E-1,1.1473382E0,-3.2303397E-2,2.9398456E-2,7.5653595E-1,1.429851E0,2.9882932E-1,-2.7638346E-2,4.932634E-1,1.2677646E0,1.1311935E0,1.646307E0,5.3664213E-1,-2.4183784E-2,3.1789724E-2,7.678412E-1,1.4106231E0,3.1613758E-1,1.2605617E0,4.4968486E-1,1.6874325E0,3.3879742E-1,-1.1552722E-1,8.9337E-1,-1.2566757E-1,5.921501E-1,9.0114766E-1,-2.2776768E-2,1.4848742E0,1.7127137E-4,9.1090876E-1,-2.262914E-2,1.3020822E0,-1.7066851E-2,1.0385283E0,-2.3046138E-2,1.2902573E-2,1.7203552E0,3.992481E-2,-1.7861558E-2,3.0091241E-2,-2.3986114E-2,5.7283204E-2,-1.6660452E-2,3.2089166E-2,-1.1328786E-2,-2.2307852E-2,6.342744E-2,5.1559467E-2,-6.7796134E-3,-2.6029298E-2,3.1630307E-2,8.0416664E-2,2.1203374E-2,6.051643E-2,6.29142E-3,3.707287E-2,7.189906E-2,7.8069844E-4,7.2296165E-2,3.2054897E-2,-1.8033512E-2,6.9690533E-3,8.709927E-2],"categories":[],"categories_nodes":[],"categories_segments":[],"categories_sizes":[],"default_left":[0,0,0,0,0,0,0,0,0,0,0,0,0,0,0,0,0,0,0,0,0,0,0,0,0,0,0,0,0,0,0,0,0,0,0,0,0,0,0,0,0,0,0,0,0,0,0,0,0,0,0,0,0,0,0,0,0,0,0,0,0,0,0,0,0],"id":7,"left_children":[1,3,5,-1,7,9,11,13,-1,15,17,19,21,23,-1,25,27,29,31,33,35,37,39,41,43,45,47,49,51,53,-1,55,-1,57,-1,59,61,-1,63,-1,-1,-1,-1,-1,-1,-1,-1,-1,-1,-1,-1,-1,-1,-1,-1,-1,-1,-1,-1,-1,-1,-1,-1,-1,-1],"loss_changes":[4.915158E2,8.346191E0,2.5559418E1,0E0,3.302879E0,1.3287411E1,7.119049E0,2.9251423E0,0E0,8.828648E0,4.244396E0,4.86203E0,3.6415863E0,2.7692444E0,0E0,2.4661434E0,4.632736E0,3.0990791E0,3.0604897E0,3.849678E0,3.191299E0,3.119049E0,1.4500973E0,1.5786324E0,2.7095523E0,1.8480434E0,4.8649106E0,5.191778E0,2.7075238E0,3.0134964E0,0E0,6.933551E-1,0E0,2.7517242E0,0E0,2.0980263E0,1.865825E0,0E0,2.2820587E0,0E0,0E0,0E0,0E0,0E0,0E0,0E0,0E0,0E0,0E0,0E0,0E0,0E0,0E0,0E0,0E0,0E0,0E0,0E0,0E0,0E0,0E0,0E0,0E0,0E0,0E0],"parents":[2147483647,0,0,1,1,2,2,4,4,5,5,6,6,7,7,9,9,10,10,11,11,12,12,13,13,15,15,16,16,17,17,18,18,19,19,20,20,21,21,22,22,23,23,24,24,25,25,26,26,27,27,28,28,29,29,31,31,33,33,35,35,36,36,38,38],"right_children":[2,4,6,-1,8,10,12,14,-1,16,18,20,22,24,-1,26,28,30,32,34,36,38,40,42,44,46,48,50,52,54,-1,56,-1,58,-1,60,62,-1,64,-1,-1,-1,-1,-1,-1,-1,-1,-1,-1,-1,-1,-1,-1,-1,-1,-1,-1,-1,-1,-1,-1,-1,-1,-1,-1],"split_conditions":[2.5743935E-1,2.3171048E-1,5.714286E-1,-3.2303397E-2,3.3716697E-1,7.160631E-1,3.9355722E-1,7.822284E-1,-2.7638346E-2,3.3818644E-1,2.9705063E-1,3.164218E-1,7.3081136E-1,3.3177625E-2,-2.4183784E-2,1E0,6.6790265E-1,3.848866E-1,2.7842753E-2,9.335221E-1,4.291369E-1,1.8036345E-4,6.5627225E-2,1.9301498E-2,9.22773E-1,4.9471915E-2,1.5856804E-2,3.264761E-1,6.345185E-1,2.7925003E-1,1.7127137E-4,3.0075848E-2,-2.262914E-2,4.9250492E-1,-1.7066851E-2,3.0998725E-1,2.7673644E-1,1.2902573E-2,2.4989693E-5,3.992481E-2,-1.7861558E-2,3.0091241E-2,-2.3986114E-2,5.7283204E-2,-1.6660452E-2,3.2089166E-2,-1.1328786E-2,-2.2307852E-2,6.342744E-2,5.1559467E-2,-6.7796134E-3,-2.6029298E-2,3.1630307E-2,8.0416664E-2,2.1203374E-2,6.051643E-2,6.29142E-3,3.707287E-2,7.189906E-2,7.8069844E-4,7.2296165E-2,3.2054897E-2,-1.8033512E-2,6.9690533E-3,8.709927E-2],"split_indices":[1,1,8,0,0,12,1,6,0,1,0,3,7,0,0,14,7,2,4,6,7,4,2,2,12,11,5,4,11,3,0,5,0,6,0,7,1,0,2,0,0,0,0,0,0,0,0,0,0,0,0,0,0,0,0,0,0,0,0,0,0,0,0,0,0],"split_type":[0,0,0,0,0,0,0,0,0,0,0,0,0,0,0,0,0,0,0,0,0,0,0,0,0,0,0,0,0,0,0,0,0,0,0,0,0,0,0,0,0,0,0,0,0,0,0,0,0,0,0,0,0,0,0,0,0,0,0,0,0,0,0,0,0],"sum_hessian":[6.9488794E2,4.5458792E2,2.403E2,4.355839E2,1.9004017E1,1.0236945E2,1.3793056E2,1.3324175E1,5.679843E0,6.886844E1,3.3501015E1,6.0576042E1,7.735451E1,1.045958E1,2.8645945E0,2.6107023E1,4.2761417E1,2.87089E1,4.792114E0,5.0197567E1,1.0378475E1,7.4713936E1,2.6405706E0,3.937392E0,6.522188E0,2.0985878E1,5.1211452E0,3.647205E1,6.28937E0,2.721756E1,1.4913416E0,2.5974545E0,2.1946595E0,4.9111774E1,1.0857909E0,4.0886717E0,6.2898035E0,1.8811107E0,7.283283E1,1.5016043E0,1.1389664E0,1.1061461E0,2.831246E0,5.4642234E0,1.0579644E0,1.8158048E0,1.9170073E1,2.154409E0,2.9667363E0,3.2411877E1,4.060173E0,3.6912694E0,2.5981007E0,2.3917812E1,3.2997475E0,1.4882083E0,1.1092461E0,1.0841829E1,3.8269947E1,1.4603229E0,2.628349E0,1.816903E0,4.472901E0,1.0834856E0,7.1749344E1],"tree_param":{"num_deleted":"0","num_feature":"18","num_nodes":"65","size_leaf_vector":"1"}},{"base_weights":[1.5635287E-2,-5.532878E-1,1.6640792E0,9.181409E-2,-5.7375085E-1,1.0556729E0,2.3058915E0,-2.5564978E-2,7.572137E-2,-1.6353431E-1,-2.8838694E-2,1.6430869E0,-2.7261479E-2,-2.6008165E-2,2.827217E0,-1.789322E-2,7.308945E-3,2.3201573E0,1.1418873E0,2.9011867E0,-1.4744853E-2,2.5057158E0,3.4558673E-3,1.3728856E0,3.0845186E-1,3.003524E0,1.566991E-2,1.346642E-1,3.2925557E-2,3.052215E-2,1.0639484E-1,-1.5114546E-2,7.4287966E-2,1.5483096E-1,3.8997703E-3],"categories":[],"categories_nodes":[],"categories_segments":[],"categories_sizes":[],"default_left":[0,0,0,0,0,0,0,0,0,0,0,0,0,0,0,0,0,0,0,0,0,0,0,0,0,0,0,0,0,0,0,0,0,0,0],"id":8,"left_children":[1,3,5,7,9,11,13,-1,-1,15,-1,17,-1,-1,19,-1,-1,21,23,25,-1,27,-1,29,31,33,-1,-1,-1,-1,-1,-1,-1,-1,-1],"loss_changes":[4.285553E2,4.537445E0,4.3347015E1,1.0476021E1,3.1420898E-1,5.9230446E1,8.428549E1,0E0,0E0,2.8136316E-1,0E0,1.283503E1,0E0,0E0,1.1851074E1,0E0,0E0,7.529373E0,5.003628E0,1.14002075E1,0E0,4.1192245E0,0E0,1.1240002E1,5.775235E0,1.1936096E1,0E0,0E0,0E0,0E0,0E0,0E0,0E0,0E0,0E0],"parents":[2147483647,0,0,1,1,2,2,3,3,4,4,5,5,6,6,9,9,11,11,14,14,17,17,18,18,19,19,21,21,23,23,24,24,25,25],"right_children":[2,4,6,8,10,12,14,-1,-1,16,-1,18,-1,-1,20,-1,-1,22,24,26,-1,28,-1,30,32,34,-1,-1,-1,-1,-1,-1,-1,-1,-1],"split_conditions":[2.7507153E-1,2.5710556E-1,4.0311322E-1,2.2483411E-1,4.0574464E-1,4.0306234E-1,4.023166E-1,-2.5564978E-2,7.572137E-2,4.1666666E-1,-2.8838694E-2,2.9166666E-1,-2.7261479E-2,-2.6008165E-2,4.1728792E-1,-1.789322E-2,7.308945E-3,3.004742E-1,2.8325427E-1,3.9543575E-1,-1.4744853E-2,2.8567097E-1,3.4558673E-3,6.322504E-2,3.8133973E-1,4.0329248E-1,1.566991E-2,1.346642E-1,3.2925557E-2,3.052215E-2,1.0639484E-1,-1.5114546E-2,7.4287966E-2,1.5483096E-1,3.8997703E-3],"split_indices":[2,17,2,2,6,17,17,0,0,15,0,15,0,0,4,0,0,5,1,1,0,0,0,1,1,0,0,0,0,0,0,0,0,0,0],"split_type":[0,0,0,0,0,0,0,0,0,0,0,0,0,0,0,0,0,0,0,0,0,0,0,0,0,0,0,0,0,0,0,0,0,0,0],"sum_hessian":[4.5497925E2,3.387364E2,1.16242836E2,1.0307369E1,3.2842902E2,6.1032173E1,5.5210663E1,7.688457E0,2.6189125E0,2.8056803E0,3.2562335E2,4.4629913E1,1.640226E1,8.598934E0,4.661173E1,1.6284418E0,1.1772385E0,1.744043E1,2.7189486E1,4.560208E1,1.0096467E0,1.6007736E1,1.4326932E0,2.078216E1,6.4073257E0,4.3712753E1,1.8893292E0,1.4116313E1,1.8914232E0,1.1240025E1,9.542135E0,4.70815E0,1.6991757E0,4.2307964E1,1.4047906E0],"tree_param":{"num_deleted":"0","num_feature":"18","num_nodes":"35","size_leaf_vector":"1"}},{"base_weights":[-1.9315671E-2,-4.76631E-1,1.6638736E0,-2.9428143E-2,3.2102722E-1,-2.7654001E-2,1.9373622E0,1.6095831E0,-2.8725633E-2,2.102627E0,6.0941803E-1,8.9353585E-1,1.8954583E0,2.2513914E0,5.824758E-1,1.2607398E0,1.0968467E-1,9.632876E-2,-2.2607218E-2,-1.5580634E-2,2.1082456E0,2.3453195E0,1.1225383E0,-1.12000786E-1,1.2611605E0,8.326219E-2,3.9072684E-3,4.9580818E-1,-2.5731277E-1,4.75442E-2,1.2548831E-1,1.2278291E-1,5.7043165E-2,7.498817E-2,-1.7647333E-2,1.9510401E-2,-2.1839824E-2,7.777398E-2,8.222037E-3,-3.9059706E-3,5.5114903E-2,-2.1606848E-2,8.865538E-3],"categories":[],"categories_nodes":[],"categories_segments":[],"categories_sizes":[],"default_left":[0,0,0,0,0,0,0,0,0,0,0,0,0,0,0,0,0,0,0,0,0,0,0,0,0,0,0,0,0,0,0,0,0,0,0,0,0,0,0,0,0,0,0],"id":9,"left_children":[1,3,5,-1,7,-1,9,11,-1,13,15,17,19,21,23,25,27,-1,-1,-1,29,31,33,35,37,-1,-1,39,41,-1,-1,-1,-1,-1,-1,-1,-1,-1,-1,-1,-1,-1,-1],"loss_changes":[3.9021133E2,3.57769E1,6.673999E1,0E0,5.8273E1,0E0,1.9926666E1,2.5314102E0,0E0,1.8031342E1,3.8012843E0,1.1687838E1,7.16576E0,5.5910645E0,4.3706236E0,2.3379974E0,1.253305E0,0E0,0E0,0E0,3.5474663E0,6.5921326E0,4.9129057E0,1.0436738E0,1.2354193E0,0E0,0E0,1.5525186E0,4.3611595E-1,0E0,0E0,0E0,0E0,0E0,0E0,0E0,0E0,0E0,0E0,0E0,0E0,0E0,0E0],"parents":[2147483647,0,0,1,1,2,2,4,4,6,6,7,7,9,9,10,10,11,11,12,12,13,13,14,14,15,15,16,16,20,20,21,21,22,22,23,23,24,24,27,27,28,28],"right_children":[2,4,6,-1,8,-1,10,12,-1,14,16,18,20,22,24,26,28,-1,-1,-1,30,32,34,36,38,-1,-1,40,42,-1,-1,-1,-1,-1,-1,-1,-1,-1,-1,-1,-1,-1,-1],"split_conditions":[3.2774317E-1,2.3834683E-1,3.2956177E-1,-2.9428143E-2,3.2180375E-1,-2.7654001E-2,3.406883E-1,2.652053E-1,-2.8725633E-2,3.3702266E-1,5.714286E-1,2.6271087E-1,2.5239134E-1,3.3622906E-1,3.75E-1,2.4834594E-2,6.25E-1,9.632876E-2,-2.2607218E-2,-1.5580634E-2,4E-1,3.3325842E-1,1E0,2.8400174E-1,8.333333E-1,8.326219E-2,3.9072684E-3,1.178091E-2,3.2590695E-2,4.75442E-2,1.2548831E-1,1.2278291E-1,5.7043165E-2,7.498817E-2,-1.7647333E-2,1.9510401E-2,-2.1839824E-2,7.777398E-2,8.222037E-3,-3.9059706E-3,5.5114903E-2,-2.1606848E-2,8.865538E-3],"split_indices":[3,3,17,0,17,0,1,3,0,2,8,17,17,5,15,5,15,0,0,0,14,4,14,11,15,0,0,2,5,0,0,0,0,0,0,0,0,0,0,0,0,0,0],"split_type":[0,0,0,0,0,0,0,0,0,0,0,0,0,0,0,0,0,0,0,0,0,0,0,0,0,0,0,0,0,0,0,0,0,0,0,0,0,0,0,0,0,0,0],"sum_hessian":[5.049035E2,3.9759537E2,1.0730813E2,3.4889813E2,4.869722E1,1.1671806E1,9.563632E1,1.9640284E1,2.9056938E1,8.4532715E1,1.1103602E1,6.7810445E0,1.285924E1,7.6559456E1,7.973263E0,4.1595182E0,6.9440846E0,3.591942E0,3.1891024E0,1.0899218E0,1.1769318E1,6.968369E1,6.875761E0,4.3534694E0,3.6197934E0,2.7952733E0,1.3642448E0,3.2128315E0,3.7312531E0,3.898966E0,7.870352E0,6.2884148E1,6.799545E0,5.4627023E0,1.4130584E0,1.6306751E0,2.7227943E0,2.5241127E0,1.0956805E0,2.0983427E0,1.1144888E0,2.664998E0,1.0662551E0],"tree_param":{"num_deleted":"0","num_feature":"18","num_nodes":"43","size_leaf_vector":"1"}},{"base_weights":[-2.2642573E-2,-4.5991194E-1,2.2334056E0,-5.323194E-1,4.6623096E-1,1.795835E0,3.4596124E0,-2.7235249E-2,-1.5491807E-1,1.7626923E-1,1.4255416E0,2.0377696E0,6.2663865E-1,1.8118502E-1,5.336786E-2,4.827177E-2,-2.3820551E-2,1.0546304E0,-6.2494203E-2,9.725853E-2,6.1834906E-3,2.420316E0,1.0267866E0,-1.842846E-2,1.0255312E0,8.4240854E-2,4.540776E-3,-2.4498197E-1,3.624535E-2,2.6100023E0,1.5217654E-2,1.6696539E0,-2.0489353E-1,3.229338E-1,8.193927E-2,-1.9849835E-2,2.4074445E-2,1.3651536E-1,1.0171537E-2,1.0739821E-1,2.542587E-2,-1.9603338E-2,1.104514E-2,5.5493552E-2,-1.8070906E-2],"categories":[],"categories_nodes":[],"categories_segments":[],"categories_sizes":[],"default_left":[0,0,0,0,0,0,0,0,0,0,0,0,0,0,0,0,0,0,0,0,0,0,0,0,0,0,0,0,0,0,0,0,0,0,0,0,0,0,0,0,0,0,0,0,0],"id":10,"left_children":[1,3,5,7,9,11,13,-1,15,17,19,21,23,-1,-1,-1,-1,25,27,-1,-1,29,31,-1,33,-1,-1,35,-1,37,-1,39,41,43,-1,-1,-1,-1,-1,-1,-1,-1,-1,-1,-1],"loss_changes":[3.0401804E2,1.7556389E1,2.0633743E1,1.0367584E0,5.103005E0,9.742401E0,8.7405396E-1,0E0,3.7083852E0,3.405098E0,2.6863546E0,9.82608E0,3.6026154E0,0E0,0E0,0E0,0E0,1.9479167E0,2.1121187E0,0E0,0E0,8.179169E0,8.636617E0,0E0,2.0831866E0,0E0,0E0,1.4807346E0,0E0,5.346756E0,0E0,2.791092E0,4.4390893E-1,2.593599E0,0E0,0E0,0E0,0E0,0E0,0E0,0E0,0E0,0E0,0E0,0E0],"parents":[2147483647,0,0,1,1,2,2,3,3,4,4,5,5,6,6,8,8,9,9,10,10,11,11,12,12,17,17,18,18,21,21,22,22,24,24,27,27,29,29,31,31,32,32,33,33],"right_children":[2,4,6,8,10,12,14,-1,16,18,20,22,24,-1,-1,-1,-1,26,28,-1,-1,30,32,-1,34,-1,-1,36,-1,38,-1,40,42,44,-1,-1,-1,-1,-1,-1,-1,-1,-1,-1,-1],"split_conditions":[3.3325842E-1,2.7158716E-1,5.3683245E-1,2.4625283E-1,8.416165E-1,3.1138876E-1,1.9609737E-1,-2.7235249E-2,1.56387E-1,4.4023655E-3,3.7797618E-1,6.4285713E-1,2.459926E-1,1.8118502E-1,5.336786E-2,4.827177E-2,-2.3820551E-2,3.8279265E-1,6.8683136E-1,9.725853E-2,6.1834906E-3,9.0146613E-1,1.4103416E-1,-1.842846E-2,5.833333E-1,8.4240854E-2,4.540776E-3,6.8848765E-1,3.624535E-2,7.546525E-1,1.5217654E-2,6.3182586E-1,5.7738096E-1,4.22043E-1,8.193927E-2,-1.9849835E-2,2.4074445E-2,1.3651536E-1,1.0171537E-2,1.0739821E-1,2.542587E-2,-1.9603338E-2,1.104514E-2,5.5493552E-2,-1.8070906E-2],"split_indices":[4,4,4,4,12,0,0,0,12,1,10,8,12,0,0,0,0,12,7,0,0,12,1,0,15,0,0,11,0,11,0,12,10,11,0,0,0,0,0,0,0,0,0,0,0],"split_type":[0,0,0,0,0,0,0,0,0,0,0,0,0,0,0,0,0,0,0,0,0,0,0,0,0,0,0,0,0,0,0,0,0,0,0,0,0,0,0,0,0,0,0,0,0],"sum_hessian":[3.0613696E2,2.5710147E2,4.9035503E1,2.3885277E2,1.8248705E1,3.7955624E1,1.1079881E1,2.3083397E2,8.018794E0,1.49220915E1,3.3266132E0,3.0832722E1,7.1229E0,9.886957E0,1.1929234E0,1.3413657E0,6.6774287E0,2.458976E0,1.2463115E1,2.0244431E0,1.30217E0,2.1357298E1,9.475426E0,2.0598192E0,5.063081E0,1.0345006E0,1.4244756E0,1.0677399E1,1.7857168E0,1.9385954E1,1.971344E0,5.99223E0,3.4831953E0,3.0711246E0,1.991956E0,9.20481E0,1.4725882E0,1.833487E1,1.0510837E0,3.6420631E0,2.3501668E0,2.4746113E0,1.0085841E0,1.1392806E0,1.9318441E0],"tree_param":{"num_deleted":"0","num_feature":"18","num_nodes":"45","size_leaf_vector":"1"}},{"base_weights":[-4.749202E-2,-5.279506E-1,1.71983E0,-2.7790686E-2,1.1952565E-1,8.3024377E-1,2.1321392E0,1.2973313E-1,-2.5345523E-2,2.0802448E0,-2.5919182E-2,-2.3992496E-2,2.4833364E0,2.4970367E0,8.9855444E-1,2.6683035E0,3.7054196E-1,1.3141644E-1,3.5139695E-2,-1.6068465E-1,1.1448788E-1,2.873609E0,5.4610944E-1,-2.0394428E-2,7.478347E-2,1.077841E-2,-1.8419968E-2,1.574967E-1,4.7910694E-2,7.870471E-2,-8.196909E-3],"categories":[],"categories_nodes":[],"categories_segments":[],"categories_sizes":[],"default_left":[0,0,0,0,0,0,0,0,0,0,0,0,0,0,0,0,0,0,0,0,0,0,0,0,0,0,0,0,0,0,0],"id":11,"left_children":[1,3,5,-1,7,9,11,-1,-1,13,-1,-1,15,17,19,21,23,-1,-1,25,-1,27,29,-1,-1,-1,-1,-1,-1,-1,-1],"loss_changes":[3.0837598E2,5.216469E0,2.6704361E1,0E0,2.0852972E1,4.5286415E1,4.9267593E1,0E0,0E0,4.557541E0,0E0,0E0,1.7128418E1,4.2521286E-1,7.975851E0,1.6933197E1,4.8956385E0,0E0,0E0,3.81517E-1,0E0,1.7351074E1,3.8934293E0,0E0,0E0,0E0,0E0,0E0,0E0,0E0,0E0],"parents":[2147483647,0,0,1,1,2,2,4,4,5,5,6,6,9,9,12,12,13,13,14,14,15,15,16,16,19,19,21,21,22,22],"right_children":[2,4,6,-1,8,10,12,-1,-1,14,-1,-1,16,18,20,22,24,-1,-1,26,-1,28,30,-1,-1,-1,-1,-1,-1,-1,-1],"split_conditions":[2.694766E-1,2.4048829E-1,3.4327757E-1,-2.7790686E-2,2.6790652E-1,3.3792803E-1,3.4384182E-1,1.2973313E-1,-2.5345523E-2,2.0777681E-1,-2.5919182E-2,-2.3992496E-2,3.6852387E-1,8.4565765E-1,3.235216E-1,3.8980812E-1,6.666667E-1,1.3141644E-1,3.5139695E-2,2.690744E-1,1.1448788E-1,3.3818644E-1,9.771237E-3,-2.0394428E-2,7.478347E-2,1.077841E-2,-1.8419968E-2,1.574967E-1,4.7910694E-2,7.870471E-2,-8.196909E-3],"split_indices":[5,5,5,0,17,17,17,0,0,0,0,0,0,12,0,2,15,0,0,0,0,1,3,0,0,0,0,0,0,0,0],"split_type":[0,0,0,0,0,0,0,0,0,0,0,0,0,0,0,0,0,0,0,0,0,0,0,0,0,0,0,0,0,0,0],"sum_hessian":[3.6109976E2,2.844668E2,7.6632965E1,2.72866E2,1.1600785E1,2.5224009E1,5.140896E1,1.7084634E0,9.892323E0,1.2809131E1,1.2414877E1,6.0495815E0,4.535938E1,8.646376E0,4.162755E0,4.1466244E1,3.8931358E0,7.6236544E0,1.0227214E0,2.8655057E0,1.2972496E0,3.7485718E1,3.980525E0,2.6778865E0,1.2152493E0,1.0057993E0,1.8597064E0,3.2196365E1,5.2893505E0,1.1290445E0,2.8514805E0],"tree_param":{"num_deleted":"0","num_feature":"18","num_nodes":"31","size_leaf_vector":"1"}},{"base_weights":[2.07475E-2,-3.3582207E-2,9.832016E-1,4.100708E-1,1.1753491E0,1.2549435E0,-3.3184227E-2,-3.234542E-2,1.2892224E0,2.4075226E-1,1.3726858E0,1.3709686E0,5.0973296E-1,6.407157E-1,-2.2513448E-1,1.459467E0,9.595697E-1,1.3983072E0,3.9548618E-1,2.997398E-1,5.8793377E-2,3.3664063E-3,4.592948E-2,-1.9898947E-2,2.4063394E-3,7.5509794E-2,3.6050465E-2,3.5549167E-3,6.2085994E-2,7.14584E-2,4.172849E-2,-2.1569896E-2,3.6469176E-2,-2.7138535E-2,2.7893448E-2],"categories":[],"categories_nodes":[],"categories_segments":[],"categories_sizes":[],"default_left":[0,0,0,0,0,0,0,0,0,0,0,0,0,0,0,0,0,0,0,0,0,0,0,0,0,0,0,0,0,0,0,0,0,0,0],"id":12,"left_children":[1,-1,3,5,7,9,-1,-1,11,13,15,17,19,21,23,25,27,29,31,33,-1,-1,-1,-1,-1,-1,-1,-1,-1,-1,-1,-1,-1,-1,-1],"loss_changes":[5.0805573E2,0E0,3.4645782E1,7.488257E1,5.0293823E1,5.1658173E0,0E0,0E0,1.3617126E1,1.2623507E0,7.0388794E-2,4.8540344E0,2.8532343E0,4.939977E-1,1.850201E-1,1.0933685E-1,2.4290047E0,2.231598E0,2.2257056E0,4.383993E0,0E0,0E0,0E0,0E0,0E0,0E0,0E0,0E0,0E0,0E0,0E0,0E0,0E0,0E0,0E0],"parents":[2147483647,0,0,2,2,3,3,4,4,5,5,8,8,9,9,10,10,11,11,12,12,13,13,14,14,15,15,16,16,17,17,18,18,19,19],"right_children":[2,-1,4,6,8,10,-1,-1,12,14,16,18,20,22,24,26,28,30,32,34,-1,-1,-1,-1,-1,-1,-1,-1,-1,-1,-1,-1,-1,-1,-1],"split_conditions":[2.3450218E-1,-3.3582207E-2,3.235216E-1,3.236824E-1,3.2058385E-1,4.4372615E-1,-3.3184227E-2,-3.234542E-2,3.2630938E-1,3.633136E-1,2.3171048E-1,3.9491597E-1,8.6341906E-1,6.6964287E-1,3.6838073E-2,9.0520936E-1,2.5491193E-1,3.7123975E-1,3.7753686E-1,3.714167E-1,5.8793377E-2,3.3664063E-3,4.592948E-2,-1.9898947E-2,2.4063394E-3,7.5509794E-2,3.6050465E-2,3.5549167E-3,6.2085994E-2,7.14584E-2,4.172849E-2,-2.1569896E-2,3.6469176E-2,-2.7138535E-2,2.7893448E-2],"split_indices":[0,0,0,17,17,6,0,0,1,11,1,2,6,10,2,6,1,4,0,1,0,0,0,0,0,0,0,0,0,0,0,0,0,0,0],"split_type":[0,0,0,0,0,0,0,0,0,0,0,0,0,0,0,0,0,0,0,0,0,0,0,0,0,0,0,0,0,0,0,0,0,0,0],"sum_hessian":[7.6040314E2,4.424243E2,3.1797885E2,8.062564E1,2.3735321E2,4.50275E1,3.559814E1,1.3684587E1,2.2366862E2,5.000416E0,4.0027084E1,2.0175182E2,2.1916815E1,2.4886503E0,2.5117655E0,3.098533E1,9.041755E0,1.9583008E2,5.92173E0,1.7766157E1,4.1506577E0,1.2178783E0,1.2707722E0,1.2590078E0,1.2527577E0,2.8015705E1,2.9696262E0,2.4810586E0,6.560696E0,1.8421065E2,1.1619442E1,1.6193829E0,4.302347E0,3.90802E0,1.3858137E1],"tree_param":{"num_deleted":"0","num_feature":"18","num_nodes":"35","size_leaf_vector":"1"}},{"base_weights":[1.5992947E-2,-6.3087547E-1,1.0333803E0,-1.5692638E-1,-3.200569E-2,4.044637E-1,1.1985416E0,-2.8082056E-2,5.831335E-2,1.3355359E0,-3.1556904E-2,-3.11769E-2,1.322248E0,-1.9832505E-2,1.4370793E0,1.4131263E0,6.304341E-1,6.1402763E-3,1.484792E0,1.5089172E0,7.0636505E-1,5.962717E-2,9.044527E-1,2.0895535E-2,7.639277E-2,8.011585E-2,3.8329E-2,1.6091533E-2,7.5117804E-2,-1.4816703E-2,4.6353023E-2,-1.775299E-2,5.088393E-2],"categories":[],"categories_nodes":[],"categories_segments":[],"categories_sizes":[],"default_left":[0,0,0,0,0,0,0,0,0,0,0,0,0,0,0,0,0,0,0,0,0,0,0,0,0,0,0,0,0,0,0,0,0],"id":13,"left_children":[1,3,5,7,-1,9,11,-1,-1,13,-1,-1,15,-1,17,19,21,-1,23,25,27,29,31,-1,-1,-1,-1,-1,-1,-1,-1,-1,-1],"loss_changes":[4.5749097E2,1.760315E0,2.7580414E1,5.715686E0,0E0,5.6484375E1,4.894394E1,0E0,0E0,5.9712334E0,0E0,0E0,1.1697784E1,0E0,1.6501884E0,1.0861511E1,3.8648357E0,0E0,6.5294266E-1,9.467682E0,6.52835E0,3.114466E0,2.7653465E0,0E0,0E0,0E0,0E0,0E0,0E0,0E0,0E0,0E0,0E0],"parents":[2147483647,0,0,1,1,2,2,3,3,5,5,6,6,9,9,12,12,14,14,15,15,16,16,18,18,19,19,20,20,21,21,22,22],"right_children":[2,4,6,8,-1,10,12,-1,-1,14,-1,-1,16,-1,18,20,22,-1,24,26,28,30,32,-1,-1,-1,-1,-1,-1,-1,-1,-1,-1],"split_conditions":[2.51768E-1,2.5239134E-1,3.160062E-1,1.7562829E-1,-3.200569E-2,3.1725878E-1,3.1725878E-1,-2.8082056E-2,5.831335E-2,2.4920583E-1,-3.1556904E-2,-3.11769E-2,3.235216E-1,-1.9832505E-2,7.1428575E-2,3.1232688E-1,5E-1,6.1402763E-3,4.1429392E-1,3.4234628E-1,7.5E-1,4.498551E-1,1.6666667E-1,2.0895535E-2,7.639277E-2,8.011585E-2,3.8329E-2,1.6091533E-2,7.5117804E-2,-1.4816703E-2,4.6353023E-2,-1.775299E-2,5.088393E-2],"split_indices":[1,17,1,1,0,17,17,0,0,17,0,0,0,0,8,3,8,0,6,2,15,0,15,0,0,0,0,0,0,0,0,0,0],"split_type":[0,0,0,0,0,0,0,0,0,0,0,0,0,0,0,0,0,0,0,0,0,0,0,0,0,0,0,0,0,0,0,0,0],"sum_hessian":[6.931622E2,4.2397388E2,2.6918832E2,8.45007E0,4.155238E2,5.6706192E1,2.1248213E2,6.9116116E0,1.5384588E0,2.9707567E1,2.6998623E1,1.3251997E1,1.9923013E2,1.4841346E0,2.8223433E1,1.7517595E2,2.4054176E1,1.1139116E0,2.7109522E1,1.5326782E2,2.1908127E1,8.196885E0,1.5857291E1,1.4671029E0,2.5642418E1,1.3511003E2,1.81578E1,1.5718843E1,6.1892843E0,6.2787185E0,1.9181662E0,1.1317685E0,1.4725523E1],"tree_param":{"num_deleted":"0","num_feature":"18","num_nodes":"33","size_leaf_vector":"1"}},{"base_weights":[1.9824091E-2,-4.9497288E-1,1.6976693E0,-2.8704474E-2,2.4305035E-1,-2.5706096E-2,1.8725649E0,1.6049974E0,-2.760975E-2,2.0636938E0,3.5513288E-1,1.8955126E0,-2.1183684E-3,2.3471158E0,7.398228E-1,-6.825609E-2,1.1353121E0,2.247047E0,4.5903206E-1,2.4787772E0,8.479407E-1,-2.4891537E-1,1.0394313E0,5.3640645E-2,-2.4822388E-2,8.73735E-2,-1.5517349E-2,1.19395696E-1,3.261218E-2,-1.602611E-2,5.1629394E-2,1.2657733E-1,1.7510995E-2,-1.7538397E-2,6.0585745E-2,-2.096624E-2,7.457081E-3,8.054515E-2,1.6638955E-2],"categories":[],"categories_nodes":[],"categories_segments":[],"categories_sizes":[],"default_left":[0,0,0,0,0,0,0,0,0,0,0,0,0,0,0,0,0,0,0,0,0,0,0,0,0,0,0,0,0,0,0,0,0,0,0,0,0,0,0],"id":14,"left_children":[1,3,5,-1,7,-1,9,11,-1,13,15,17,-1,19,21,23,25,27,29,31,33,35,37,-1,-1,-1,-1,-1,-1,-1,-1,-1,-1,-1,-1,-1,-1,-1,-1],"loss_changes":[3.9567117E2,2.060894E1,4.256598E1,0E0,3.8409294E1,0E0,2.8235565E1,6.315155E0,0E0,3.1470581E1,4.1672654E0,4.5719604E0,0E0,1.2195648E1,5.3143244E0,4.914864E0,4.44697E0,3.8759232E-1,1.8683224E0,6.5343018E0,3.637835E0,3.8647944E-1,4.8310966E0,0E0,0E0,0E0,0E0,0E0,0E0,0E0,0E0,0E0,0E0,0E0,0E0,0E0,0E0,0E0,0E0],"parents":[2147483647,0,0,1,1,2,2,4,4,6,6,7,7,9,9,10,10,11,11,13,13,14,14,15,15,16,16,17,17,18,18,19,19,20,20,21,21,22,22],"right_children":[2,4,6,-1,8,-1,10,12,-1,14,16,18,-1,20,22,24,26,28,30,32,34,36,38,-1,-1,-1,-1,-1,-1,-1,-1,-1,-1,-1,-1,-1,-1,-1,-1],"split_conditions":[3.0552822E-1,2.3973909E-1,3.05823E-1,-2.8704474E-2,3.05823E-1,-2.5706096E-2,3.3117312E-1,7.083333E-1,-2.760975E-2,3.0741027E-1,3.9491597E-1,2.3450218E-1,-2.1183684E-3,3.6433005E-1,2.857143E-1,3.4013873E-1,7.083333E-1,2.9979223E-1,2.9705063E-1,4.7365263E-1,4.2675504E-1,3.5250667E-1,5E-1,5.3640645E-2,-2.4822388E-2,8.73735E-2,-1.5517349E-2,1.19395696E-1,3.261218E-2,-1.602611E-2,5.1629394E-2,1.2657733E-1,1.7510995E-2,-1.7538397E-2,6.0585745E-2,-2.096624E-2,7.457081E-3,8.054515E-2,1.6638955E-2],"split_indices":[2,2,17,0,17,0,0,15,0,1,2,0,0,5,13,17,10,2,0,3,7,2,8,0,0,0,0,0,0,0,0,0,0,0,0,0,0,0,0],"split_type":[0,0,0,0,0,0,0,0,0,0,0,0,0,0,0,0,0,0,0,0,0,0,0,0,0,0,0,0,0,0,0,0,0,0,0,0,0,0,0],"sum_hessian":[4.5611267E2,3.4956427E2,1.06548416E2,3.159196E2,3.3644672E1,7.665698E0,9.888271E1,1.20276785E1,2.1616993E1,8.750144E1,1.1381272E1,1.0096511E1,1.9311671E0,7.143524E1,1.60662E1,7.9691E0,3.4121723E0,7.658144E0,2.4383671E0,6.506743E1,6.3678145E0,3.7755854E0,1.2290615E1,1.7636845E0,6.2054152E0,2.2504563E0,1.1617162E0,6.579661E0,1.0784835E0,1.2205757E0,1.2177914E0,6.3308613E1,1.758817E0,1.4908664E0,4.8769484E0,2.6063643E0,1.1692213E0,6.0877824E0,6.2028327E0],"tree_param":{"num_deleted":"0","num_feature":"18","num_nodes":"39","size_leaf_vector":"1"}},{"base_weights":[-4.0424457E-3,-5.370883E-1,1.349879E0,-2.927327E-2,1.5478192E-1,8.944042E-1,1.7084215E0,-3.250622E-1,4.380689E-1,1.0470837E0,1.3899363E-2,1.8325338E0,4.2984462E-1,-2.592946E-2,2.5108296E-2,1.811601E-1,6.724692E-2,6.6030866E-1,1.2316065E0,-4.000328E-1,9.2536867E-1,1.6989805E-1,1.8858094E0,6.6530876E-2,-2.9888096E-1,-2.1727851E-1,5.104937E-1,3.0734843E-1,1.2328118E0,1.4569345E0,5.9628695E-1,8.047778E-3,-2.5586048E-2,6.2342804E-2,6.5940428E-3,-1.6528402E-2,2.9789869E-2,1.9811164E0,6.8114704E-1,-2.285278E-2,9.415995E-3,1.4676131E-2,-2.3670876E-2,3.936662E-2,-1.800072E-2,3.8033016E-2,-6.9348137E-3,9.104224E-2,-5.067908E-3,2.6451025E-2,7.780647E-2,7.028059E-2,2.7748203E-4,1.2495798E-2,1.0168236E-1,8.249809E-2,-2.2405714E-2],"categories":[],"categories_nodes":[],"categories_segments":[],"categories_sizes":[],"default_left":[0,0,0,0,0,0,0,0,0,0,0,0,0,0,0,0,0,0,0,0,0,0,0,0,0,0,0,0,0,0,0,0,0,0,0,0,0,0,0,0,0,0,0,0,0,0,0,0,0,0,0,0,0,0,0,0,0],"id":15,"left_children":[1,3,5,-1,7,9,11,13,15,17,19,21,23,-1,-1,25,-1,27,29,31,33,35,37,-1,39,41,43,45,47,49,51,-1,-1,-1,-1,-1,-1,53,55,-1,-1,-1,-1,-1,-1,-1,-1,-1,-1,-1,-1,-1,-1,-1,-1,-1,-1],"loss_changes":[3.6922073E2,1.237677E1,2.2073273E1,0E0,3.5108364E0,8.825157E0,1.18701935E1,1.8249542E0,3.4857569E0,3.185135E0,4.4186015E0,6.0928345E0,5.888169E0,0E0,0E0,1.8993356E0,0E0,3.7132292E0,4.395523E0,5.884588E-1,7.674284E-1,9.103488E-1,6.693802E0,0E0,5.053178E-1,1.0376698E0,2.1535943E0,2.9078765E0,5.983349E0,1.6115952E0,5.404513E0,0E0,0E0,0E0,0E0,0E0,0E0,5.3479156E0,8.025766E0,0E0,0E0,0E0,0E0,0E0,0E0,0E0,0E0,0E0,0E0,0E0,0E0,0E0,0E0,0E0,0E0,0E0,0E0],"parents":[2147483647,0,0,1,1,2,2,4,4,5,5,6,6,7,7,8,8,9,9,10,10,11,11,12,12,15,15,17,17,18,18,19,19,20,20,21,21,22,22,24,24,25,25,26,26,27,27,28,28,29,29,30,30,37,37,38,38],"right_children":[2,4,6,-1,8,10,12,14,16,18,20,22,24,-1,-1,26,-1,28,30,32,34,36,38,-1,40,42,44,46,48,50,52,-1,-1,-1,-1,-1,-1,54,56,-1,-1,-1,-1,-1,-1,-1,-1,-1,-1,-1,-1,-1,-1,-1,-1,-1,-1],"split_conditions":[2.7925003E-1,2.3834683E-1,3.8646847E-1,-2.927327E-2,3.3333334E-1,3.5263485E-1,3.406883E-1,2.9663438E-1,8.461768E-1,6.110816E-1,8.031759E-1,1.2780161E-4,1.1762478E-2,-2.592946E-2,2.5108296E-2,5E-1,6.724692E-2,6.268784E-1,2.0270534E-1,2.5E-1,8.740213E-1,2.5E-1,3.3117312E-1,6.6530876E-2,9.285714E-1,1.0444575E-2,1.6252501E-1,8.439019E-2,7.271086E-1,2.9238036E-3,3.7619963E-1,8.047778E-3,-2.5586048E-2,6.2342804E-2,6.5940428E-3,-1.6528402E-2,2.9789869E-2,4.310218E-2,4.6050382E-1,-2.285278E-2,9.415995E-3,1.4676131E-2,-2.3670876E-2,3.936662E-2,-1.800072E-2,3.8033016E-2,-6.9348137E-3,9.104224E-2,-5.067908E-3,2.6451025E-2,7.780647E-2,7.028059E-2,2.7748203E-4,1.2495798E-2,1.0168236E-1,8.249809E-2,-2.2405714E-2],"split_indices":[3,3,3,0,10,0,1,5,6,6,6,0,5,0,0,15,0,7,5,16,6,16,0,0,8,5,4,0,7,5,7,0,0,0,0,0,0,12,3,0,0,0,0,0,0,0,0,0,0,0,0,0,0,0,0,0,0],"split_type":[0,0,0,0,0,0,0,0,0,0,0,0,0,0,0,0,0,0,0,0,0,0,0,0,0,0,0,0,0,0,0,0,0,0,0,0,0,0,0,0,0,0,0,0,0,0,0,0,0,0,0,0,0,0,0,0,0],"sum_hessian":[5.095925E2,3.6607156E2,1.4352094E2,3.4229153E2,2.3780016E1,6.4754524E1,7.876642E1,8.772797E0,1.5007219E1,5.502415E1,9.730371E0,7.140211E1,7.3643146E0,7.411908E0,1.3608888E0,1.2629226E1,2.3779936E0,1.9250975E1,3.5773174E1,7.077381E0,2.6529903E0,2.3469548E0,6.905515E1,2.9240115E0,4.440303E0,5.868984E0,6.760242E0,1.2859607E1,6.3913674E0,2.5452675E1,1.0320502E1,1.1018554E0,5.975526E0,1.4814204E0,1.1715698E0,1.1819286E0,1.1650262E0,6.33951E1,5.6600504E0,3.398742E0,1.0415611E0,1.9113513E0,3.9576328E0,5.2015843E0,1.5586579E0,6.028025E0,6.831582E0,4.182959E0,2.2084086E0,3.069773E0,2.2382902E1,3.7725692E0,6.5479326E0,2.0365345E0,6.1358566E1,2.7982662E0,2.861784E0],"tree_param":{"num_deleted":"0","num_feature":"18","num_nodes":"57","size_leaf_vector":"1"}},{"base_weights":[1.6755369E-2,2.3935458E-1,-3.6415586E-1,5.8177465E-1,-2.3480456E-1,3.1089255E-1,-3.8627452E-1,1.0893962E0,-1.5212716E-1,3.731346E-1,-2.887172E-1,4.058709E-2,-1.6472518E-2,2.8166237E-1,-4.0173715E-1,-2.3289E-2,1.2386818E0,5.7014056E-2,-4.6468893E-1,-2.4588148E-1,6.5793484E-2,-3.8370907E-1,3.414389E-2,-1.4031437E-2,3.5922784E-2,-4.547238E-1,-2.178159E-1,1.5386021E0,7.6071763E-1,-2.1112083E-1,1.5033911E0,1.1174425E-2,-2.5784334E-2,-2.0623893E-2,1.0499728E-2,-4.1459373E-1,2.4633182E-2,4.3644702E-1,-2.4056964E-2,-1.3078795E-1,-4.8539576E-1,2.1499861E-2,-2.780556E-1,8.0792286E-2,5.735552E-4,1.8889038E-2,6.2051337E-2,1.3713277E-3,-2.5023464E-2,9.877371E-2,6.7592487E-3,9.379818E-3,-2.1492314E-2,-1.2185446E-2,4.4789787E-2,-1.648931E-2,2.6350876E-2,-5.395363E-4,-2.4872756E-2,-2.4899382E-2,-3.8978893E-3],"categories":[],"categories_nodes":[],"categories_segments":[],"categories_sizes":[],"default_left":[0,0,0,0,0,0,0,0,0,0,0,0,0,0,0,0,0,0,0,0,0,0,0,0,0,0,0,0,0,0,0,0,0,0,0,0,0,0,0,0,0,0,0,0,0,0,0,0,0,0,0,0,0,0,0,0,0,0,0,0,0],"id":16,"left_children":[1,3,5,7,9,11,13,15,17,19,21,-1,-1,23,25,-1,27,29,31,33,-1,35,37,-1,-1,39,41,43,45,47,49,-1,-1,-1,-1,51,-1,53,-1,55,57,-1,59,-1,-1,-1,-1,-1,-1,-1,-1,-1,-1,-1,-1,-1,-1,-1,-1,-1,-1],"loss_changes":[2.5935678E1,3.1474537E1,1.8048954E0,4.2026157E1,2.7838464E0,1.5932722E0,1.2461872E0,1.6026161E1,3.0870676E0,4.459401E0,2.3305383E0,0E0,0E0,9.556327E-1,9.498882E-1,0E0,7.572418E0,1.1541483E1,7.7779675E-1,4.755186E-1,0E0,1.7867308E0,3.9613216E0,0E0,0E0,7.5761795E-1,1.1339078E0,4.286606E0,4.220005E0,1.7594559E0,2.7359533E0,0E0,0E0,0E0,0E0,6.0435295E-1,0E0,3.557079E0,0E0,1.2886863E0,4.246025E-1,0E0,1.034473E0,0E0,0E0,0E0,0E0,0E0,0E0,0E0,0E0,0E0,0E0,0E0,0E0,0E0,0E0,0E0,0E0,0E0,0E0],"parents":[2147483647,0,0,1,1,2,2,3,3,4,4,5,5,6,6,7,7,8,8,9,9,10,10,13,13,14,14,16,16,17,17,18,18,19,19,21,21,22,22,25,25,26,26,27,27,28,28,29,29,30,30,35,35,37,37,39,39,40,40,42,42],"right_children":[2,4,6,8,10,12,14,16,18,20,22,-1,-1,24,26,-1,28,30,32,34,-1,36,38,-1,-1,40,42,44,46,48,50,-1,-1,-1,-1,52,-1,54,-1,56,58,-1,60,-1,-1,-1,-1,-1,-1,-1,-1,-1,-1,-1,-1,-1,-1,-1,-1,-1,-1],"split_conditions":[2.4711658E-1,2.6806566E-1,2.3316653E-4,2.652053E-1,4.4500282E-1,1.06508076E-1,2.5496E-1,2.7306193E-1,4.3938237E-1,5.82788E-1,8.1859857E-1,4.058709E-2,-1.6472518E-2,7.1428573E-1,6.8154764E-1,-2.3289E-2,4.6130952E-1,4.3671885E-1,2.8399494E-1,6.4285713E-1,6.5793484E-2,2.188456E-1,5.6326427E-2,-1.4031437E-2,3.5922784E-2,2.1377823E-3,6.9345236E-1,7.6966536E-1,5.714286E-1,5.952381E-1,7.664444E-2,1.1174425E-2,-2.5784334E-2,-2.0623893E-2,1.0499728E-2,2.5710556E-1,2.4633182E-2,5.625E-1,-2.4056964E-2,1.5226774E-3,4.958932E-4,2.1499861E-2,4.406121E-1,8.0792286E-2,5.735552E-4,1.8889038E-2,6.2051337E-2,1.3713277E-3,-2.5023464E-2,9.877371E-2,6.7592487E-3,9.379818E-3,-2.1492314E-2,-1.2185446E-2,4.4789787E-2,-1.648931E-2,2.6350876E-2,-5.395363E-4,-2.4872756E-2,-2.4899382E-2,-3.8978893E-3],"split_indices":[0,1,3,3,6,1,17,17,17,11,6,0,0,13,10,0,10,3,3,10,0,0,0,0,0,1,10,11,9,9,1,0,0,0,0,17,0,9,0,1,3,0,7,0,0,0,0,0,0,0,0,0,0,0,0,0,0,0,0,0,0],"split_type":[0,0,0,0,0,0,0,0,0,0,0,0,0,0,0,0,0,0,0,0,0,0,0,0,0,0,0,0,0,0,0,0,0,0,0,0,0,0,0,0,0,0,0,0,0,0,0,0,0,0,0,0,0,0,0,0,0,0,0,0,0],"sum_hessian":[3.0385144E2,1.9201321E2,1.1183822E2,1.1136361E2,8.0649605E1,3.1340208E0,1.0870419E2,6.554404E1,4.581957E1,6.087181E0,7.456242E1,1.6083612E0,1.5256596E0,2.0700245E0,1.0663417E2,5.5549984E0,5.998904E1,2.7941172E1,1.7878397E1,4.1206646E0,1.9665164E0,5.746629E1,1.7096136E1,1.0613091E0,1.0087154E0,8.164137E1,2.4992798E1,3.549624E1,2.4492802E1,2.4291885E1,3.6492872E0,1.0001246E0,1.6878273E1,3.0875432E0,1.0331213E0,5.6019016E1,1.4472711E0,9.686486E0,7.4096494E0,7.5169225E0,7.412445E1,1.604119E0,2.338868E1,3.3731953E1,1.7642846E0,1.4621794E1,9.871008E0,1.3810946E1,1.0480939E1,2.383163E0,1.2661242E0,1.1046982E0,5.4914318E1,4.093985E0,5.5925016E0,6.153909E0,1.3630134E0,1.883727E0,7.224072E1,1.043291E1,1.295577E1],"tree_param":{"num_deleted":"0","num_feature":"18","num_nodes":"61","size_leaf_vector":"1"}},{"base_weights":[2.0455662E-2,-5.17531E-1,1.6049606E0,-2.7696086E-2,2.0430355E-1,8.042668E-1,2.005406E0,1.2757806E-1,-2.5396034E-2,1.800041E0,-2.6001185E-2,-2.5142057E-2,2.4434624E0,1.9399083E0,-1.4515988E-2,2.618373E0,4.5995817E-1,2.2437322E0,9.958232E-1,2.7008204E0,5.789885E-1,-1.7919507E-2,9.5042896E-1,1.3481678E-1,4.3066684E-2,1.7934611E-2,9.907689E-2,1.3730708E-1,4.1844554E-2,-1.475181E-2,6.0777526E-2,6.3898265E-2,7.42685E-3],"categories":[],"categories_nodes":[],"categories_segments":[],"categories_sizes":[],"default_left":[0,0,0,0,0,0,0,0,0,0,0,0,0,0,0,0,0,0,0,0,0,0,0,0,0,0,0,0,0,0,0,0,0],"id":17,"left_children":[1,3,5,-1,7,9,11,-1,-1,13,-1,-1,15,17,-1,19,21,23,25,27,29,-1,31,-1,-1,-1,-1,-1,-1,-1,-1,-1,-1],"loss_changes":[3.1090414E2,7.2660904E0,2.8027374E1,0E0,2.4365967E1,4.3778923E1,6.820186E1,0E0,0E0,6.050667E0,0E0,0E0,1.6857727E1,2.8488998E0,0E0,6.4448547E0,2.5209022E0,5.5668373E0,3.1281738E0,1.545929E0,2.0965204E0,0E0,7.741566E-1,0E0,0E0,0E0,0E0,0E0,0E0,0E0,0E0,0E0,0E0],"parents":[2147483647,0,0,1,1,2,2,4,4,5,5,6,6,9,9,12,12,13,13,15,15,16,16,17,17,18,18,19,19,20,20,22,22],"right_children":[2,4,6,-1,8,10,12,-1,-1,14,-1,-1,16,18,-1,20,22,24,26,28,30,-1,32,-1,-1,-1,-1,-1,-1,-1,-1,-1,-1],"split_conditions":[2.694766E-1,2.4048829E-1,3.5081956E-1,-2.7696086E-2,2.6790652E-1,3.5063332E-1,3.5063332E-1,1.2757806E-1,-2.5396034E-2,8.882642E-1,-2.6001185E-2,-2.5142057E-2,3.3818644E-1,2.0777681E-1,-1.4515988E-2,3.9850903E-1,3.0952382E-1,2.1727718E-1,3.432905E-1,7.586606E-1,4.5833334E-1,-1.7919507E-2,5E-1,1.3481678E-1,4.3066684E-2,1.7934611E-2,9.907689E-2,1.3730708E-1,4.1844554E-2,-1.475181E-2,6.0777526E-2,6.3898265E-2,7.42685E-3],"split_indices":[5,5,5,0,17,17,17,0,0,12,0,0,1,0,0,0,9,4,0,7,15,0,15,0,0,0,0,0,0,0,0,0,0],"split_type":[0,0,0,0,0,0,0,0,0,0,0,0,0,0,0,0,0,0,0,0,0,0,0,0,0,0,0,0,0,0,0,0,0],"sum_hessian":[3.6274716E2,2.7130457E2,9.144261E1,2.5850485E2,1.2799699E1,3.1488848E1,5.9953762E1,2.3784807E0,1.0421218E1,1.7768744E1,1.3720105E1,8.891938E0,5.106182E1,1.6721848E1,1.0468951E0,4.6629814E1,4.4320097E0,1.16091795E1,5.1126685E0,4.45062E1,2.1236157E0,1.7617804E0,2.6702292E0,8.029734E0,3.5794456E0,3.9338548E0,1.1788137E0,4.2987656E1,1.5185416E0,1.120981E0,1.0026348E0,1.4743404E0,1.1958888E0],"tree_param":{"num_deleted":"0","num_feature":"18","num_nodes":"33","size_leaf_vector":"1"}},{"base_weights":[-2.6266892E-3,2.0505685E-1,-4.3653327E-1,4.0181237E-1,-2.9110745E-1,-2.868907E-1,-5.5014473E-1,5.996177E-1,-3.6027443E-1,-1.3916266E-1,-5.951611E-1,7.652803E-1,-3.225572E-1,4.1628662E-1,-5.759071E-1,9.053145E-1,-4.3059092E-2,4.6332538E-1,-4.5305213E-1,1.4883249E-2,-3.178488E-2,2.3729276E-2,-6.335807E-1,5.1389635E-2,4.3991045E-3,-1.8145828E-1,-5.723752E-1,-1.7690927E-2,4.0615167E-2,-3.7359127E-1,-6.1656E-1,1.1815003E0,-1.3809566E-1,1.9860433E-1,-6.120606E-1,5.073346E-2,-1.3213256E-1,-5.545568E-1,-3.790245E-2,7.309993E-1,-1.8443643E-1,3.6591396E-3,-3.2669242E-2,-2.1330979E-2,-3.148922E-2,-1.326023E-1,-3.233759E-2,-5.670094E-1,-1.8745245E-2,4.2453655E-3,-6.247795E-1,2.2373116E-2,7.158303E-2,3.4804236E-2,-2.2097219E-2,1.8720418E-2,-2.72914E-2,-3.2104693E-2,-1.6410505E-2,2.5270283E-2,-2.430345E-2,-6.733487E-3,-3.0803755E-2,-2.9420188E-2,3.040785E-2,5.338002E-2,-1.6639894E-2,4.397396E-2,-1.9026538E-2,1.1750682E-2,-3.111565E-2,-2.6590426E-2,3.3770815E-2,-3.1141538E-2,4.043263E-3,1.8447531E-2,-2.630218E-2,-1.38616385E-2,-3.2051276E-2],"categories":[],"categories_nodes":[],"categories_segments":[],"categories_sizes":[],"default_left":[0,0,0,0,0,0,0,0,0,0,0,0,0,0,0,0,0,0,0,0,0,0,0,0,0,0,0,0,0,0,0,0,0,0,0,0,0,0,0,0,0,0,0,0,0,0,0,0,0,0,0,0,0,0,0,0,0,0,0,0,0,0,0,0,0,0,0,0,0,0,0,0,0,0,0,0,0,0,0],"id":18,"left_children":[1,3,5,7,9,11,13,15,17,19,21,23,25,27,29,31,33,35,37,39,-1,-1,41,-1,-1,43,45,-1,-1,47,49,51,53,55,57,-1,59,61,63,65,67,-1,-1,69,-1,71,-1,73,75,-1,77,-1,-1,-1,-1,-1,-1,-1,-1,-1,-1,-1,-1,-1,-1,-1,-1,-1,-1,-1,-1,-1,-1,-1,-1,-1,-1,-1,-1],"loss_changes":[6.907269E1,5.0723473E1,4.06036E0,5.6234356E1,6.744356E0,4.3435764E0,3.7240562E0,5.807602E1,6.109087E0,7.6461844E0,2.3119144E0,5.9867287E-1,3.6427975E0,1.572614E0,8.9424133E-1,5.786502E1,1.33463745E1,2.8624864E0,2.9241972E0,1.1150794E1,0E0,0E0,7.150116E-1,0E0,0E0,4.9680347E0,1.1539335E0,0E0,0E0,1.7337108E0,7.0064163E-1,2.8451248E1,1.115669E1,9.137867E0,3.5761833E-2,0E0,1.3468876E0,1.3658085E0,5.623224E0,6.444519E0,1.30968075E1,0E0,0E0,8.182522E0,0E0,2.5334907E0,0E0,6.440172E-1,2.1609066E0,0E0,4.4977188E-1,0E0,0E0,0E0,0E0,0E0,0E0,0E0,0E0,0E0,0E0,0E0,0E0,0E0,0E0,0E0,0E0,0E0,0E0,0E0,0E0,0E0,0E0,0E0,0E0,0E0,0E0,0E0,0E0],"parents":[2147483647,0,0,1,1,2,2,3,3,4,4,5,5,6,6,7,7,8,8,9,9,10,10,11,11,12,12,13,13,14,14,15,15,16,16,17,17,18,18,19,19,22,22,25,25,26,26,29,29,30,30,31,31,32,32,33,33,34,34,36,36,37,37,38,38,39,39,40,40,43,43,45,45,47,47,48,48,50,50],"right_children":[2,4,6,8,10,12,14,16,18,20,22,24,26,28,30,32,34,36,38,40,-1,-1,42,-1,-1,44,46,-1,-1,48,50,52,54,56,58,-1,60,62,64,66,68,-1,-1,70,-1,72,-1,74,76,-1,78,-1,-1,-1,-1,-1,-1,-1,-1,-1,-1,-1,-1,-1,-1,-1,-1,-1,-1,-1,-1,-1,-1,-1,-1,-1,-1,-1,-1],"split_conditions":[2.6130706E-1,2.7638072E-1,4.158997E-2,3.6234438E-1,1.40527E-1,3.84709E-4,2.4920583E-1,2.648184E-1,3.3792803E-1,2.1393254E-1,4.9220704E-5,1.3911286E-1,4.487584E-1,3.9583334E-1,3.0979833E-1,3.852979E-1,1.9596426E-1,6.326474E-2,7.172619E-1,3.5208324E-1,-3.178488E-2,2.3729276E-2,4.075125E-1,5.1389635E-2,4.3991045E-3,2.5024414E-1,3.9355722E-1,-1.7690927E-2,4.0615167E-2,7.1428573E-1,9.3376815E-7,3.624567E-1,3.837812E-1,5.5150485E-1,8.5714287E-1,5.073346E-2,5.4692786E-2,3.9491597E-1,4.1666666E-1,2.6009724E-1,3.5063332E-1,3.6591396E-3,-3.2669242E-2,2.2748737E-1,-3.148922E-2,1.7349644E-2,-3.233759E-2,7.4511945E-1,2.4851823E-1,4.2453655E-3,6.343934E-4,2.2373116E-2,7.158303E-2,3.4804236E-2,-2.2097219E-2,1.8720418E-2,-2.72914E-2,-3.2104693E-2,-1.6410505E-2,2.5270283E-2,-2.430345E-2,-6.733487E-3,-3.0803755E-2,-2.9420188E-2,3.040785E-2,5.338002E-2,-1.6639894E-2,4.397396E-2,-1.9026538E-2,1.1750682E-2,-3.111565E-2,-2.6590426E-2,3.3770815E-2,-3.1141538E-2,4.043263E-3,1.8447531E-2,-2.630218E-2,-1.38616385E-2,-3.2051276E-2],"split_indices":[1,3,3,2,2,5,17,5,17,5,1,12,17,10,1,4,4,5,10,3,0,0,6,0,0,2,1,0,0,13,5,17,17,17,13,0,3,2,15,4,17,0,0,5,0,3,0,7,3,0,4,0,0,0,0,0,0,0,0,0,0,0,0,0,0,0,0,0,0,0,0,0,0,0,0,0,0,0,0],"split_type":[0,0,0,0,0,0,0,0,0,0,0,0,0,0,0,0,0,0,0,0,0,0,0,0,0,0,0,0,0,0,0,0,0,0,0,0,0,0,0,0,0,0,0,0,0,0,0,0,0,0,0,0,0,0,0,0,0,0,0,0,0,0,0,0,0,0,0,0,0,0,0,0,0,0,0,0,0,0,0],"sum_hessian":[7.644995E2,5.173867E2,2.4711276E2,3.7061023E2,1.467765E2,1.08166794E2,1.3894597E2,2.9440768E2,7.620254E1,9.884057E1,4.7935932E1,2.875721E0,1.0529107E2,3.214143E0,1.3573183E2,1.99232E2,9.51757E1,7.3106866E0,6.889185E1,7.617724E1,2.2663338E1,1.2683213E0,4.666761E1,1.6995193E0,1.1762017E0,6.839018E1,3.6900887E1,1.1277145E0,2.0864286E0,2.4415226E1,1.113166E2,1.5742894E2,4.180305E1,6.726023E1,2.7915464E1,3.4304056E0,3.8802807E0,5.508717E1,1.3804682E1,1.600543E1,6.0171806E1,1.1985577E0,4.546905E1,5.1163757E1,1.7226429E1,5.740632E0,3.1160255E1,1.5414985E1,9.000242E0,1.1812016E0,1.1013539E2,4.07236E1,1.16705345E2,1.08165655E1,3.0986485E1,5.4812782E1,1.2447452E1,2.4103111E1,3.8123522E0,1.2324103E0,2.6478705E0,7.447071E0,4.76401E1,7.501751E0,6.3029313E0,1.2155633E1,3.8497968E0,8.8221245E0,5.134968E1,3.6292427E1,1.4871328E1,4.071112E0,1.6695199E0,1.4227764E1,1.1872199E0,5.256074E0,3.744168E0,5.725048E0,1.0441035E2],"tree_param":{"num_deleted":"0","num_feature":"18","num_nodes":"79","size_leaf_vector":"1"}},{"base_weights":[5.8366996E-3,-6.1321086E-1,9.7209066E-1,9.399059E-2,-3.1714436E-2,4.5830932E-1,1.1174668E0,-2.8470514E-2,7.2723486E-2,1.2608687E0,-5.5685484E-1,-3.154018E-2,1.2654259E0,-1.961242E-2,1.3468103E0,1.6839771E-1,-3.1336047E-2,9.6324986E-1,1.4380261E0,1.3659626E-2,1.4020684E0,-1.6824795E-2,2.8936207E-2,1.2717196E0,-3.1110799E-2,-2.9059498E-2,1.5518298E0,3.3410575E-2,7.538419E-2,6.658948E-2,2.3272416E-2,8.038378E-2,1.8155575E-2],"categories":[],"categories_nodes":[],"categories_segments":[],"categories_sizes":[],"default_left":[0,0,0,0,0,0,0,0,0,0,0,0,0,0,0,0,0,0,0,0,0,0,0,0,0,0,0,0,0,0,0,0,0],"id":19,"left_children":[1,3,5,7,-1,9,11,-1,-1,13,15,-1,17,-1,19,21,-1,23,25,-1,27,-1,-1,29,-1,-1,31,-1,-1,-1,-1,-1,-1],"loss_changes":[4.0991473E2,6.285965E0,1.9475342E1,1.25251255E1,0E0,5.0167683E1,5.4572693E1,0E0,0E0,5.3891296E0,1.4989824E0,0E0,8.628601E0,0E0,1.5598221E0,8.5864055E-1,0E0,3.640905E1,2.8516312E1,0E0,1.3877907E0,0E0,0E0,2.3487854E0,0E0,0E0,6.9861755E0,0E0,0E0,0E0,0E0,0E0,0E0],"parents":[2147483647,0,0,1,1,2,2,3,3,5,5,6,6,9,9,10,10,12,12,14,14,15,15,17,17,18,18,20,20,23,23,26,26],"right_children":[2,4,6,8,-1,10,12,-1,-1,14,16,-1,18,-1,20,22,-1,24,26,-1,28,-1,-1,30,-1,-1,32,-1,-1,-1,-1,-1,-1],"split_conditions":[2.5491193E-1,2.5496E-1,3.2630938E-1,1.7562829E-1,-3.1714436E-2,3.236824E-1,3.2665324E-1,-2.8470514E-2,7.2723486E-2,2.460067E-1,3.2665324E-1,-3.154018E-2,3.95934E-1,-1.961242E-2,4.1429392E-1,4.1723545E-3,-3.1336047E-2,3.9781824E-1,3.9543575E-1,1.3659626E-2,1.3988096E-1,-1.6824795E-2,2.8936207E-2,3.4987915E-1,-3.1110799E-2,-2.9059498E-2,3.9210224E-1,3.3410575E-2,7.538419E-2,6.658948E-2,2.3272416E-2,8.038378E-2,1.8155575E-2],"split_indices":[1,17,1,1,0,17,17,0,0,17,17,0,17,0,6,4,0,1,1,0,9,0,0,2,0,0,0,0,0,0,0,0,0],"split_type":[0,0,0,0,0,0,0,0,0,0,0,0,0,0,0,0,0,0,0,0,0,0,0,0,0,0,0,0,0,0,0,0,0],"sum_hessian":[6.8329956E2,4.1669925E2,2.666003E2,1.1959975E1,4.0473926E2,5.9714104E1,2.068862E2,8.430523E0,3.5294528E0,3.3214027E1,2.6500078E1,1.5888293E1,1.909979E2,1.4652532E0,3.1748772E1,2.204607E0,2.4295471E1,7.182779E1,1.1917011E2,1.8450441E0,2.9903728E1,1.0690752E0,1.1355319E0,6.029468E1,1.1533104E1,6.1390023E0,1.1303111E2,4.6840425E0,2.5219687E1,5.55074E1,4.787284E0,1.0762258E2,5.40853E0],"tree_param":{"num_deleted":"0","num_feature":"18","num_nodes":"33","size_leaf_vector":"1"}},{"base_weights":[-1.3427162E-2,2.0498233E-1,-3.9293468E-1,7.2561884E-1,-3.0787911E-2,-1.9199525E-1,-4.7511038E-1,9.0563947E-1,-2.7487075E-1,1.398897E-1,-3.1037903E-1,-2.7068084E-2,-1.6025772E-4,-5.9635434E-2,-5.1189274E-1,1.1632421E0,3.5793785E-2,2.6595613E-2,-3.9302668E-1,4.684503E-1,-1.0788377E-1,-1.5596268E-1,-4.9993965E-1,-3.6365843E-1,3.4078184E-1,7.76912E-1,-3.876125E-1,-5.20398E-1,4.8652734E-3,1.5366492E0,4.1945565E-1,5.408823E-1,-3.4770724E-1,8.941748E-2,-2.6471455E-2,6.0806906E-1,-2.4801325E-2,2.5936369E-2,-4.5021623E-1,-2.4228515E-1,6.5563405E-1,7.5922012E-3,-5.275163E-1,-2.6530415E-2,1.894063E-1,9.56468E-1,-3.545024E-2,-1.5203483E-2,7.265439E-2,8.1111E-3,-2.4769185E-2,-5.3713524E-1,-1.5844327E-1,-3.4579698E-3,8.132545E-2,4.950434E-2,-8.866845E-3,7.397843E-2,-8.4109616E-4,-2.5732974E-2,1.8687196E-2,2.547328E-2,-1.7338932E-2,4.268961E-2,1.7960112E-3,1.4075554E-2,-1.6749715E-2,9.958921E-3,-2.470645E-2,1.9923208E-2,-1.5843911E-2,6.5205485E-2,-1.7414493E-2,8.149245E-4,-2.7833102E-2,2.8395912E-2,-1.7314227E-2,7.076504E-2,-1.7543366E-2,-2.326743E-2,1.2995504E-2,-1.9714495E-2,-2.7713725E-2,-2.2009518E-2,1.6145958E-2],"categories":[],"categories_nodes":[],"categories_segments":[],"categories_sizes":[],"default_left":[0,0,0,0,0,0,0,0,0,0,0,0,0,0,0,0,0,0,0,0,0,0,0,0,0,0,0,0,0,0,0,0,0,0,0,0,0,0,0,0,0,0,0,0,0,0,0,0,0,0,0,0,0,0,0,0,0,0,0,0,0,0,0,0,0,0,0,0,0,0,0,0,0,0,0,0,0,0,0,0,0,0,0,0,0],"id":20,"left_children":[1,3,5,7,9,11,13,15,17,19,21,-1,23,25,27,29,31,-1,33,35,37,39,41,43,45,47,49,51,-1,53,55,57,59,61,-1,63,-1,65,67,69,71,-1,73,-1,75,77,79,-1,-1,-1,-1,81,83,-1,-1,-1,-1,-1,-1,-1,-1,-1,-1,-1,-1,-1,-1,-1,-1,-1,-1,-1,-1,-1,-1,-1,-1,-1,-1,-1,-1,-1,-1,-1,-1],"loss_changes":[3.8221733E1,3.595435E1,2.6899452E0,1.6689629E1,9.703925E0,3.3888626E0,1.785965E0,1.7345402E1,1.6091223E0,1.0340099E1,2.1773105E0,0E0,4.293293E0,3.2640748E0,6.1574554E-1,1.5973465E1,3.822084E0,0E0,9.28226E-1,7.6439877E0,3.3498507E0,3.2353706E0,6.9363403E-1,1.6486063E0,4.174732E0,2.90824E0,5.7958436E-1,5.674782E-1,0E0,5.80645E0,7.454524E0,4.4685354E0,1.5501198E0,8.7401396E-1,0E0,6.728882E0,0E0,5.0141473E0,6.8397427E-1,2.0582407E0,3.378251E0,0E0,5.3167915E-1,0E0,1.1343615E0,4.585197E0,1.6522629E0,0E0,0E0,0E0,0E0,3.250122E-2,9.802057E-1,0E0,0E0,0E0,0E0,0E0,0E0,0E0,0E0,0E0,0E0,0E0,0E0,0E0,0E0,0E0,0E0,0E0,0E0,0E0,0E0,0E0,0E0,0E0,0E0,0E0,0E0,0E0,0E0,0E0,0E0,0E0,0E0],"parents":[2147483647,0,0,1,1,2,2,3,3,4,4,5,5,6,6,7,7,8,8,9,9,10,10,12,12,13,13,14,14,15,15,16,16,18,18,19,19,20,20,21,21,22,22,23,23,24,24,25,25,26,26,27,27,29,29,30,30,31,31,32,32,33,33,35,35,37,37,38,38,39,39,40,40,42,42,44,44,45,45,46,46,51,51,52,52],"right_children":[2,4,6,8,10,12,14,16,18,20,22,-1,24,26,28,30,32,-1,34,36,38,40,42,44,46,48,50,52,-1,54,56,58,60,62,-1,64,-1,66,68,70,72,-1,74,-1,76,78,80,-1,-1,-1,-1,82,84,-1,-1,-1,-1,-1,-1,-1,-1,-1,-1,-1,-1,-1,-1,-1,-1,-1,-1,-1,-1,-1,-1,-1,-1,-1,-1,-1,-1,-1,-1,-1,-1],"split_conditions":[2.3984404E-1,2.9166666E-1,3.3383465E-1,3.4949726E-1,2.1604449E-1,3.05823E-1,3.3441934E-1,2.694766E-1,3.5397318E-1,7.505577E-2,9.030813E-2,-2.7068084E-2,6E-1,2.5E-1,9.4020766E-1,2.2985336E-1,2.2536239E-2,2.6595613E-2,1.8273553E-2,4.2857292E-1,2.8106326E-1,8.125E-1,2.6271087E-1,7.939044E-1,5.5621785E-1,8E-1,1.2467789E-1,9.285714E-1,4.8652734E-3,2.914217E-1,3.2531846E-2,2.857143E-1,8.1845236E-1,7.5E-1,-2.6471455E-2,7.218642E-1,-2.4801325E-2,3.4949726E-1,2.5020595E-4,3.6669439E-3,8.452381E-1,7.5922012E-3,2.551119E-2,-2.6530415E-2,1.2728463E-1,5.8360927E-2,7.6173633E-1,-1.5203483E-2,7.265439E-2,8.1111E-3,-2.4769185E-2,2.9238036E-3,3.4575347E-2,-3.4579698E-3,8.132545E-2,4.950434E-2,-8.866845E-3,7.397843E-2,-8.4109616E-4,-2.5732974E-2,1.8687196E-2,2.547328E-2,-1.7338932E-2,4.268961E-2,1.7960112E-3,1.4075554E-2,-1.6749715E-2,9.958921E-3,-2.470645E-2,1.9923208E-2,-1.5843911E-2,6.5205485E-2,-1.7414493E-2,8.149245E-4,-2.7833102E-2,2.8395912E-2,-1.7314227E-2,7.076504E-2,-1.7543366E-2,-2.326743E-2,1.2995504E-2,-1.9714495E-2,-2.7713725E-2,-2.2009518E-2,1.6145958E-2],"split_indices":[0,15,0,4,3,17,17,5,17,4,4,0,14,15,6,3,0,0,5,5,5,10,17,12,6,14,11,8,0,17,0,8,10,16,0,12,0,4,0,5,10,0,12,0,3,5,6,0,0,0,0,5,5,0,0,0,0,0,0,0,0,0,0,0,0,0,0,0,0,0,0,0,0,0,0,0,0,0,0,0,0,0,0,0,0],"split_type":[0,0,0,0,0,0,0,0,0,0,0,0,0,0,0,0,0,0,0,0,0,0,0,0,0,0,0,0,0,0,0,0,0,0,0,0,0,0,0,0,0,0,0,0,0,0,0,0,0,0,0,0,0,0,0,0,0,0,0,0,0,0,0,0,0,0,0,0,0,0,0,0,0,0,0,0,0,0,0,0,0,0,0,0,0],"sum_hessian":[4.591531E2,2.9172372E2,1.6742938E2,9.028202E1,2.0144173E2,4.9565704E1,1.1786368E2,7.65949E1,1.3687113E1,1.2539404E2,7.6047676E1,1.6923292E1,3.264241E1,9.799109E0,1.0806457E2,5.8834045E1,1.7760859E1,1.3011209E0,1.2385992E1,5.3525623E1,7.186842E1,4.2913246E1,3.313443E1,1.5766355E1,1.6876057E1,2.374315E0,7.4247947E0,1.0672036E2,1.3442054E0,3.8459858E1,2.0374187E1,7.4881883E0,1.027267E1,2.8059683E0,9.580024E0,4.7079826E1,6.445795E0,5.233467E1,1.953375E1,3.942177E1,3.491479E0,1.162079E0,3.1972351E1,1.2141798E1,3.6245573E0,5.8160815E0,1.1059975E1,1.1254315E0,1.2488836E0,1.1340052E0,6.290789E0,1.01541E2,5.1793585E0,2.0503385E0,3.640952E1,1.0078491E1,1.0295697E1,2.1747866E0,5.3134017E0,8.574958E0,1.6977121E0,1.3438724E0,1.4620959E0,3.259071E1,1.4489119E1,3.0767952E1,2.156672E1,1.0132804E0,1.852047E1,3.6579943E0,3.5763775E1,1.9395996E0,1.5518793E0,1.6488092E0,3.0323542E1,2.0886116E0,1.5359455E0,4.2439923E0,1.5720892E0,4.2697725E0,6.790202E0,1.3449833E1,8.809117E1,3.3210444E0,1.8583139E0],"tree_param":{"num_deleted":"0","num_feature":"18","num_nodes":"85","size_leaf_vector":"1"}},{"base_weights":[-1.4292418E-2,-5.351219E-1,1.1958659E0,-2.9115228E-2,1.835979E-1,7.650006E-1,1.50767E0,-1.071272E-1,7.367434E-1,9.6997905E-1,2.3721161E-1,1.6033155E0,3.473929E-1,4.348704E-2,-2.675979E-1,1.2840288E0,-4.222051E-3,1.0919603E0,3.8485527E-1,5.529386E-1,-2.7742457E-1,1.7139119E0,3.6659122E-1,-1.8880637E-2,6.038985E-1,3.174133E-1,-4.4823855E-1,2.3681499E-2,7.492708E-2,-1.9376801E-2,2.2083154E-2,5.505948E-1,1.3043568E0,7.2774374E-1,-2.1441584E-2,-1.8378418E-2,7.217296E-1,-2.506019E-2,1.8451339E-2,1.8629141E0,5.0784624E-1,7.224321E-2,-1.736942E-1,2.7964603E-2,5.746798E-2,3.7156664E-2,-1.6361227E-2,-1.6474462E-3,-2.6300991E-2,4.620375E-2,-2.26938E-2,6.958824E-2,-2.2834058E-4,5.205076E-2,-1.7300816E-2,1.3243812E-2,6.7387216E-2,9.691494E-2,3.1725686E-2,5.254909E-2,-2.2786925E-2,-2.3444716E-2,2.387792E-2,2.6864747E-2,-1.9699095E-2],"categories":[],"categories_nodes":[],"categories_segments":[],"categories_sizes":[],"default_left":[0,0,0,0,0,0,0,0,0,0,0,0,0,0,0,0,0,0,0,0,0,0,0,0,0,0,0,0,0,0,0,0,0,0,0,0,0,0,0,0,0,0,0,0,0,0,0,0,0,0,0,0,0,0,0,0,0,0,0,0,0,0,0,0,0],"id":21,"left_children":[1,3,5,-1,7,9,11,13,15,17,19,21,23,-1,25,27,29,31,33,35,37,39,41,-1,43,45,47,-1,-1,-1,-1,49,51,53,-1,-1,55,-1,-1,57,59,-1,61,63,-1,-1,-1,-1,-1,-1,-1,-1,-1,-1,-1,-1,-1,-1,-1,-1,-1,-1,-1,-1,-1],"loss_changes":[3.1861502E2,1.20907135E1,1.9281128E1,0E0,3.7021205E0,6.8982124E0,9.121628E0,2.6846743E0,3.2045655E0,2.943943E0,3.3633118E0,1.0354324E1,1.7006173E0,0E0,1.6428095E0,7.96237E-2,9.143275E-1,3.704029E0,3.0115418E0,2.219542E0,1.3679149E0,1.2250214E1,4.8319063E0,0E0,1.9261992E0,1.3232038E0,3.4650898E-1,0E0,0E0,0E0,0E0,5.134136E0,3.0830421E0,2.7746296E0,0E0,0E0,2.779335E0,0E0,0E0,4.7877197E0,5.4243574E0,0E0,1.4026351E0,1.0836029E0,0E0,0E0,0E0,0E0,0E0,0E0,0E0,0E0,0E0,0E0,0E0,0E0,0E0,0E0,0E0,0E0,0E0,0E0,0E0,0E0,0E0],"parents":[2147483647,0,0,1,1,2,2,4,4,5,5,6,6,7,7,8,8,9,9,10,10,11,11,12,12,14,14,15,15,16,16,17,17,18,18,19,19,20,20,21,21,22,22,24,24,25,25,26,26,31,31,32,32,33,33,36,36,39,39,40,40,42,42,43,43],"right_children":[2,4,6,-1,8,10,12,14,16,18,20,22,24,-1,26,28,30,32,34,36,38,40,42,-1,44,46,48,-1,-1,-1,-1,50,52,54,-1,-1,56,-1,-1,58,60,-1,62,64,-1,-1,-1,-1,-1,-1,-1,-1,-1,-1,-1,-1,-1,-1,-1,-1,-1,-1,-1,-1,-1],"split_conditions":[2.7638072E-1,2.3834683E-1,3.8646847E-1,-2.9115228E-2,1.3864805E-1,2.4711658E-1,3.252199E-1,2.4256594E-1,2.5496E-1,1E0,5.0618523E-1,3.551084E-1,4.4136815E-4,4.348704E-2,1.0444575E-2,4.5833334E-1,3.9861986E-1,2.6785713E-1,9.272838E-2,3.8830894E-3,7.8571427E-1,3.082057E-1,2.9280833E-3,-1.8880637E-2,3.8980812E-1,4.2857143E-1,2E-1,2.3681499E-2,7.492708E-2,-1.9376801E-2,2.2083154E-2,1.5773809E-1,4.0311322E-1,2.1763869E-1,-2.1441584E-2,-1.8378418E-2,6.6760725E-1,-2.506019E-2,1.8451339E-2,3.299489E-1,4.7365263E-1,7.224321E-2,6.2237423E-2,2.8400174E-1,5.746798E-2,3.7156664E-2,-1.6361227E-2,-1.6474462E-3,-2.6300991E-2,4.620375E-2,-2.26938E-2,6.958824E-2,-2.2834058E-4,5.205076E-2,-1.7300816E-2,1.3243812E-2,6.7387216E-2,9.691494E-2,3.1725686E-2,5.254909E-2,-2.2786925E-2,-2.3444716E-2,2.387792E-2,2.6864747E-2,-1.9699095E-2],"split_indices":[3,3,3,0,2,0,2,3,2,14,11,1,0,0,5,15,2,10,0,5,8,0,2,0,2,13,14,0,0,0,0,10,2,5,0,0,12,0,0,4,3,0,2,11,0,0,0,0,0,0,0,0,0,0,0,0,0,0,0,0,0,0,0,0,0],"split_type":[0,0,0,0,0,0,0,0,0,0,0,0,0,0,0,0,0,0,0,0,0,0,0,0,0,0,0,0,0,0,0,0,0,0,0,0,0,0,0,0,0,0,0,0,0,0,0,0,0,0,0,0,0,0,0,0,0,0,0,0,0,0,0,0,0],"sum_hessian":[5.034932E2,3.5238925E2,1.5110394E2,3.3085883E2,2.153045E1,6.4889755E1,8.621418E1,1.4641451E1,6.8889995E0,4.6134563E1,1.875519E1,7.929574E1,6.918444E0,1.4421862E0,1.3199265E1,3.5408065E0,3.3481927E0,3.7459206E1,8.675359E0,1.1577823E1,7.177368E0,7.243248E1,6.863262E0,1.68466E0,5.233784E0,2.9354737E0,1.0263791E1,1.412503E0,2.1283035E0,1.8707914E0,1.4774014E0,1.1567566E1,2.5891638E1,6.1776943E0,2.4976642E0,1.6115465E0,9.966276E0,5.4986196E0,1.6787483E0,6.3983124E1,8.449352E0,1.7321227E0,5.1311398E0,3.0571308E0,2.1766531E0,1.6759087E0,1.2595649E0,1.8436719E0,8.420118E0,8.490635E0,3.0769317E0,2.4211536E1,1.680101E0,4.8060236E0,1.3716707E0,6.584299E0,3.3819768E0,5.973914E1,4.243987E0,5.3455644E0,3.103788E0,3.7234046E0,1.407735E0,1.2612761E0,1.7958547E0],"tree_param":{"num_deleted":"0","num_feature":"18","num_nodes":"65","size_leaf_vector":"1"}},{"base_weights":[-1.0788588E-2,-4.3299368E-1,1.990654E0,-2.7137524E-2,4.0057132E-1,-2.3742955E-2,2.325473E0,1.8990916E0,-2.5948917E-2,2.5660417E0,5.463373E-1,2.4325192E0,1.3050082E-1,2.7285209E0,5.1486063E-1,-1.9379982E-1,1.3089765E0,1.0494847E-2,1.349688E-1,3.589612E-2,-1.7388595E-2,2.8895178E0,8.942704E-1,7.70446E-2,-1.856725E-2,1.0932733E-2,-1.919172E-2,8.156277E-3,9.055229E-2,8.185661E-2,1.5266632E-1,-1.7945493E-2,9.3545E-2],"categories":[],"categories_nodes":[],"categories_segments":[],"categories_sizes":[],"default_left":[0,0,0,0,0,0,0,0,0,0,0,0,0,0,0,0,0,0,0,0,0,0,0,0,0,0,0,0,0,0,0,0,0],"id":22,"left_children":[1,3,5,-1,7,-1,9,11,-1,13,15,17,19,21,23,25,27,-1,-1,-1,-1,29,31,-1,-1,-1,-1,-1,-1,-1,-1,-1,-1],"loss_changes":[2.589259E2,2.3365623E1,4.5168716E1,0E0,4.234383E1,0E0,1.8785477E1,1.0652996E1,0E0,1.2352051E1,4.141966E0,4.698654E0,1.3035781E0,8.642303E0,4.447816E0,4.2620587E-1,1.7305689E0,0E0,0E0,0E0,0E0,2.078949E0,6.198191E0,0E0,0E0,0E0,0E0,0E0,0E0,0E0,0E0,0E0,0E0],"parents":[2147483647,0,0,1,1,2,2,4,4,6,6,7,7,9,9,10,10,11,11,12,12,13,13,14,14,15,15,16,16,21,21,22,22],"right_children":[2,4,6,-1,8,-1,10,12,-1,14,16,18,20,22,24,26,28,-1,-1,-1,-1,30,32,-1,-1,-1,-1,-1,-1,-1,-1,-1,-1],"split_conditions":[3.3786127E-1,2.4625283E-1,3.3940226E-1,-2.7137524E-2,3.3579198E-1,-2.3742955E-2,3.4802234E-1,2.3834683E-1,-2.5948917E-2,3.6839914E-1,3.731973E-2,2E-1,4.672619E-1,3.6087006E-1,5.714286E-1,7.546876E-4,3.8148767E-1,1.0494847E-2,1.349688E-1,3.589612E-2,-1.7388595E-2,3.6375436E-1,4.1696903E-1,7.70446E-2,-1.856725E-2,1.0932733E-2,-1.919172E-2,8.156277E-3,9.055229E-2,8.185661E-2,1.5266632E-1,-1.7945493E-2,9.3545E-2],"split_indices":[4,4,17,0,17,0,0,3,0,1,3,14,10,3,8,3,4,0,0,0,0,17,3,0,0,0,0,0,0,0,0,0,0],"split_type":[0,0,0,0,0,0,0,0,0,0,0,0,0,0,0,0,0,0,0,0,0,0,0,0,0,0,0,0,0,0,0,0,0],"sum_hessian":[3.043942E2,2.5201515E2,5.2379036E1,2.2300113E2,2.9014025E1,6.2126412E0,4.6166393E1,1.0628433E1,1.8385593E1,4.027786E1,5.8885355E0,7.8771834E0,2.7512498E0,3.7015545E1,3.2623136E0,3.3668797E0,2.5216556E0,1.0358921E0,6.841291E0,1.0098563E0,1.7413934E0,3.3499866E1,3.515679E0,1.1695174E0,2.092796E0,1.014464E0,2.3524158E0,1.1719259E0,1.3497295E0,5.1465397E0,2.8353329E1,1.8168525E0,1.6988266E0],"tree_param":{"num_deleted":"0","num_feature":"18","num_nodes":"33","size_leaf_vector":"1"}},{"base_weights":[2.198619E-3,1.4488868E-1,-4.0463063E-1,4.1750845E-1,-3.09452E-1,3.5824355E-1,-4.5068172E-1,7.347418E-1,-3.0434743E-1,1.3195387E-1,-3.8989237E-1,9.170472E-1,-1.9287756E-2,-4.8814365E-1,-7.4535005E-2,1.0466899E0,1.08451E-1,3.5614498E-2,-4.378917E-1,5.935557E-1,-2.8493297E-1,-1.0267976E-1,-4.724523E-1,5.2966718E-3,6.6218756E-2,-2.3647532E-1,-5.3253603E-1,5.268803E-1,-3.3917645E-1,3.205962E-1,1.3205292E0,4.6880293E-1,-2.1851946E-1,-3.694739E-1,1.5332677E0,1.8357066E-2,-4.866326E-1,1.3338996E0,-2.1207565E-2,-2.4412515E-2,3.2104935E-2,2.9108697E-1,-2.5135947E-2,-2.2140037E-1,-5.102557E-1,1.8587624E-1,-2.47192E-2,-2.733518E-2,8.715397E-3,5.225977E-2,-1.4268669E-2,8.77631E-3,-2.3190746E-2,2.7891356E-2,-2.3152014E-2,2.275185E-2,7.839522E-2,7.771555E-2,1.2707792E-2,-2.2991145E-2,1.6889885E-2,7.0184204E-3,-2.5378445E-2,2.7955294E-2,9.131827E-2,1.1915255E-3,-2.6975175E-2,4.4467608E-3,8.940655E-2,-6.8319896E-3,5.8396813E-2,-2.4415605E-2,2.702351E-2,1.6232401E-2,-2.720218E-2,3.939323E-2,-2.0387782E-2],"categories":[],"categories_nodes":[],"categories_segments":[],"categories_sizes":[],"default_left":[0,0,0,0,0,0,0,0,0,0,0,0,0,0,0,0,0,0,0,0,0,0,0,0,0,0,0,0,0,0,0,0,0,0,0,0,0,0,0,0,0,0,0,0,0,0,0,0,0,0,0,0,0,0,0,0,0,0,0,0,0,0,0,0,0,0,0,0,0,0,0,0,0,0,0,0,0],"id":23,"left_children":[1,3,5,7,9,11,13,15,17,19,21,23,-1,25,27,29,31,33,35,37,39,41,43,-1,-1,45,47,49,51,53,55,57,59,61,63,-1,65,67,-1,-1,-1,69,-1,71,73,75,-1,-1,-1,-1,-1,-1,-1,-1,-1,-1,-1,-1,-1,-1,-1,-1,-1,-1,-1,-1,-1,-1,-1,-1,-1,-1,-1,-1,-1,-1,-1],"loss_changes":[2.1495337E1,3.4083008E1,3.5393677E0,3.9553944E1,3.7219706E0,2.861102E0,1.2476082E0,2.3254333E1,2.4282618E0,3.379329E0,2.0308895E0,1.0954273E0,0E0,7.97863E-1,1.6801031E0,1.5428589E1,4.919482E0,1.022045E1,1.6787233E0,6.7748094E0,2.0929956E0,3.4317906E0,5.3083324E-1,0E0,0E0,1.6383624E0,7.911873E-1,1.6767071E0,5.40682E-1,4.56267E0,1.1612587E1,4.2106338E0,3.1242685E0,1.0098205E0,1.6031265E-3,0E0,9.973278E-1,2.6751022E0,0E0,0E0,0E0,4.3392615E0,0E0,2.4284751E0,1.8181877E0,2.5044923E0,0E0,0E0,0E0,0E0,0E0,0E0,0E0,0E0,0E0,0E0,0E0,0E0,0E0,0E0,0E0,0E0,0E0,0E0,0E0,0E0,0E0,0E0,0E0,0E0,0E0,0E0,0E0,0E0,0E0,0E0,0E0],"parents":[2147483647,0,0,1,1,2,2,3,3,4,4,5,5,6,6,7,7,8,8,9,9,10,10,11,11,13,13,14,14,15,15,16,16,17,17,18,18,19,19,20,20,21,21,22,22,25,25,26,26,27,27,28,28,29,29,30,30,31,31,32,32,33,33,34,34,36,36,37,37,41,41,43,43,44,44,45,45],"right_children":[2,4,6,8,10,12,14,16,18,20,22,24,-1,26,28,30,32,34,36,38,40,42,44,-1,-1,46,48,50,52,54,56,58,60,62,64,-1,66,68,-1,-1,-1,70,-1,72,74,76,-1,-1,-1,-1,-1,-1,-1,-1,-1,-1,-1,-1,-1,-1,-1,-1,-1,-1,-1,-1,-1,-1,-1,-1,-1,-1,-1,-1,-1,-1,-1],"split_conditions":[3.196052E-1,2.8567097E-1,3.0447948E-1,3.3115873E-1,3.2502335E-1,5.416667E-1,7.1516997E-1,2.6820177E-1,3.8646847E-1,5.936564E-2,3.6852387E-1,1.56387E-1,-1.9287756E-2,2.1428572E-1,7.242464E-1,3.4384182E-1,3.2531846E-2,4.0987507E-1,4.1429392E-1,1.7896654E-1,3.1834364E-1,1.0232557E-1,3.837812E-1,5.2966718E-3,6.6218756E-2,3.817156E-1,9.4020766E-1,4.0672E-1,3.2208024E-3,1.9010732E-1,2.0833333E-1,1.0858034E-1,7.372277E-1,1.18185975E-1,3.6087006E-1,1.8357066E-2,1.058302E-1,3.235216E-1,-2.1207565E-2,-2.4412515E-2,3.2104935E-2,3.7632164E-1,-2.5135947E-2,3.8568735E-1,3.8778803E-1,5.4288286E-1,-2.47192E-2,-2.733518E-2,8.715397E-3,5.225977E-2,-1.4268669E-2,8.77631E-3,-2.3190746E-2,2.7891356E-2,-2.3152014E-2,2.275185E-2,7.839522E-2,7.771555E-2,1.2707792E-2,-2.2991145E-2,1.6889885E-2,7.0184204E-3,-2.5378445E-2,2.7955294E-2,9.131827E-2,1.1915255E-3,-2.6975175E-2,4.4467608E-3,8.940655E-2,-6.8319896E-3,5.8396813E-2,-2.4415605E-2,2.702351E-2,1.6232401E-2,-2.720218E-2,3.939323E-2,-2.0387782E-2],"split_indices":[1,0,17,3,17,15,7,4,3,1,0,12,0,8,7,17,0,17,6,3,17,3,17,0,0,17,6,12,3,0,15,11,12,12,3,0,12,0,0,0,0,17,0,0,0,12,0,0,0,0,0,0,0,0,0,0,0,0,0,0,0,0,0,0,0,0,0,0,0,0,0,0,0,0,0,0,0],"split_type":[0,0,0,0,0,0,0,0,0,0,0,0,0,0,0,0,0,0,0,0,0,0,0,0,0,0,0,0,0,0,0,0,0,0,0,0,0,0,0,0,0,0,0,0,0,0,0,0,0,0,0,0,0,0,0,0,0,0,0,0,0,0,0,0,0,0,0,0,0,0,0,0,0,0,0,0,0],"sum_hessian":[3.6827698E2,2.7312558E2,9.515138E1,1.7075055E2,1.0237503E2,5.0309114E0,9.012047E1,1.186081E2,5.2142452E1,1.5681961E1,8.669307E1,2.7402031E0,2.2907085E0,8.168718E1,8.433294E0,7.872491E1,3.9883198E1,1.4912699E1,3.722975E1,7.2407694E0,8.441192E0,1.9857107E1,6.683596E1,1.3373005E0,1.4029026E0,1.31971445E1,6.8490036E1,2.2741697E0,6.1591244E0,2.2153894E1,5.657101E1,1.8766731E1,2.1116465E1,1.23307495E1,2.5819492E0,1.7524676E0,3.5477283E1,4.011709E0,3.2290602E0,7.3110456E0,1.1301458E0,1.01442585E1,9.712849E0,9.644377E0,5.7191586E1,5.1093545E0,8.0877905E0,6.736634E1,1.123692E0,1.2132115E0,1.0609581E0,1.121117E0,5.0380073E0,1.7226929E1,4.926966E0,1.3206134E1,4.3364876E1,2.0678763E0,1.6698856E1,1.4849097E1,6.267367E0,2.6245463E0,9.706203E0,1.2696427E0,1.3123064E0,3.3812206E0,3.2096066E1,1.3920765E0,2.6196327E0,7.3856907E0,2.7585683E0,7.408103E0,2.236274E0,1.8896526E0,5.5301933E1,2.3743682E0,2.734986E0],"tree_param":{"num_deleted":"0","num_feature":"18","num_nodes":"77","size_leaf_vector":"1"}},{"base_weights":[-8.168617E-3,1.16281755E-1,-3.5346442E-1,2.1924736E-1,-4.061356E-1,3.437583E-1,-3.816001E-1,3.4466478E-1,-3.290198E-1,4.2941177E-1,-4.7590154E-1,6.336748E-1,-2.1544116E-2,-3.0262983E-1,-5.7985145E-1,5.1280653E-1,1.1570781E-1,-8.881954E-2,-4.4325143E-1,5.319923E-2,-1.380765E-1,-4.5343608E-2,-5.3858703E-1,9.293052E-1,-1.8538374E-2,-3.5519245E-1,3.208983E-1,-6.1212176E-1,-8.845558E-2,7.176112E-1,2.9822215E-1,-2.0158416E-1,2.274624E-1,-3.9073122E-1,2.5694665E-1,1.6787443E-1,-4.957046E-1,-2.305404E-2,1.5472102E-2,3.7175946E-2,-2.9846606E-1,3.3511706E-2,-5.845582E-1,5.5479605E-2,1.6208272E-2,-2.9494926E-1,-3.1435803E-2,9.140802E-1,-1.6555598E-1,-3.1516045E-2,3.7725985E-3,2.3631578E-2,-2.2829028E-2,4.193907E-2,1.8204248E-2,-5.924179E-3,2.110096E-2,-1.792241E-2,1.5111597E-2,3.3480156E-2,7.314013E-3,7.88141E-4,-3.0444145E-2,2.7136007E-2,-2.5712028E-2,-1.9659262E-2,2.394384E-2,2.3572939E-2,-2.6387265E-2,1.8530274E-2,-2.861703E-2,3.8294416E-2,-2.5420114E-2,-2.986837E-2,4.003785E-3,-9.70489E-3,-2.8540526E-2,4.255866E-3,5.6553163E-2,1.2889236E-2,-2.5247915E-2],"categories":[],"categories_nodes":[],"categories_segments":[],"categories_sizes":[],"default_left":[0,0,0,0,0,0,0,0,0,0,0,0,0,0,0,0,0,0,0,0,0,0,0,0,0,0,0,0,0,0,0,0,0,0,0,0,0,0,0,0,0,0,0,0,0,0,0,0,0,0,0,0,0,0,0,0,0,0,0,0,0,0,0,0,0,0,0,0,0,0,0,0,0,0,0,0,0,0,0,0,0],"id":24,"left_children":[1,3,5,7,9,11,13,15,17,19,21,23,-1,25,27,29,31,33,35,-1,37,39,41,43,-1,45,47,49,51,53,55,57,59,61,63,65,67,-1,-1,-1,69,71,73,-1,-1,75,-1,77,79,-1,-1,-1,-1,-1,-1,-1,-1,-1,-1,-1,-1,-1,-1,-1,-1,-1,-1,-1,-1,-1,-1,-1,-1,-1,-1,-1,-1,-1,-1,-1,-1],"loss_changes":[3.2474724E1,2.9972746E1,4.0585957E0,3.206948E1,5.556737E0,2.1352267E0,2.8447857E0,1.4519714E1,2.3485804E0,2.8843064E0,2.27557E0,2.256405E0,0E0,4.7040834E0,7.999821E-1,9.369247E0,5.777569E0,3.1590168E0,1.9658203E0,0E0,8.5068476E-1,2.6025E0,1.9735622E0,2.1411848E-1,0E0,1.9507313E0,3.4448204E0,6.7790794E-1,1.1428211E0,4.4435577E0,5.631624E0,3.4777212E0,4.20969E0,1.4318504E0,3.4220364E0,1.1286789E0,1.9327383E0,0E0,0E0,0E0,1.9967911E0,2.9579258E0,6.3376045E-1,0E0,0E0,2.8972979E0,0E0,8.563299E-1,1.152855E0,0E0,0E0,0E0,0E0,0E0,0E0,0E0,0E0,0E0,0E0,0E0,0E0,0E0,0E0,0E0,0E0,0E0,0E0,0E0,0E0,0E0,0E0,0E0,0E0,0E0,0E0,0E0,0E0,0E0,0E0,0E0,0E0],"parents":[2147483647,0,0,1,1,2,2,3,3,4,4,5,5,6,6,7,7,8,8,9,9,10,10,11,11,13,13,14,14,15,15,16,16,17,17,18,18,20,20,21,21,22,22,23,23,25,25,26,26,27,27,28,28,29,29,30,30,31,31,32,32,33,33,34,34,35,35,36,36,40,40,41,41,42,42,45,45,47,47,48,48],"right_children":[2,4,6,8,10,12,14,16,18,20,22,24,-1,26,28,30,32,34,36,-1,38,40,42,44,-1,46,48,50,52,54,56,58,60,62,64,66,68,-1,-1,-1,70,72,74,-1,-1,76,-1,78,80,-1,-1,-1,-1,-1,-1,-1,-1,-1,-1,-1,-1,-1,-1,-1,-1,-1,-1,-1,-1,-1,-1,-1,-1,-1,-1,-1,-1,-1,-1,-1,-1],"split_conditions":[2.5870156E-1,3.6234438E-1,2.648581E-1,3.3622906E-1,3.05823E-1,1.0974417E-1,1.40527E-1,5.714286E-1,3.7277916E-1,4.556782E-2,4.5418328E-1,7.083333E-1,-2.1544116E-2,8.125E-1,7.259906E-1,4.9462706E-1,3.624567E-1,3.9062032E-1,3.624567E-1,5.319923E-2,6E-1,3.9491597E-1,1.120181E-3,2.5923848E-1,-1.8538374E-2,2.364602E-1,1.0832431E-2,7.5593525E-1,2.0811038E-1,7.1428573E-1,3.3441934E-1,6.243331E-1,3.906473E-1,4.0073168E-1,1.2422442E-1,3.4327757E-1,2.8604386E-2,-2.305404E-2,1.5472102E-2,3.7175946E-2,4.167838E-1,2.1275567E-1,9.4137007E-1,5.5479605E-2,1.6208272E-2,4.834292E-1,-3.1435803E-2,4.0275255E-1,6.371025E-1,-3.1516045E-2,3.7725985E-3,2.3631578E-2,-2.2829028E-2,4.193907E-2,1.8204248E-2,-5.924179E-3,2.110096E-2,-1.792241E-2,1.5111597E-2,3.3480156E-2,7.314013E-3,7.88141E-4,-3.0444145E-2,2.7136007E-2,-2.5712028E-2,-1.9659262E-2,2.394384E-2,2.3572939E-2,-2.6387265E-2,1.8530274E-2,-2.861703E-2,3.8294416E-2,-2.5420114E-2,-2.986837E-2,4.003785E-3,-9.70489E-3,-2.8540526E-2,4.255866E-3,5.6553163E-2,1.2889236E-2,-2.5247915E-2],"split_indices":[3,2,17,5,17,2,2,8,17,5,6,15,0,10,11,12,17,5,5,0,14,2,3,17,0,5,5,7,2,13,17,11,17,11,2,5,11,0,0,0,17,11,6,0,0,17,0,12,6,0,0,0,0,0,0,0,0,0,0,0,0,0,0,0,0,0,0,0,0,0,0,0,0,0,0,0,0,0,0,0,0],"split_type":[0,0,0,0,0,0,0,0,0,0,0,0,0,0,0,0,0,0,0,0,0,0,0,0,0,0,0,0,0,0,0,0,0,0,0,0,0,0,0,0,0,0,0,0,0,0,0,0,0,0,0,0,0,0,0,0,0,0,0,0,0,0,0,0,0,0,0,0,0,0,0,0,0,0,0,0,0,0,0,0,0],"sum_hessian":[7.537584E2,5.545519E2,1.9920651E2,4.63733E2,9.081892E1,7.291827E0,1.9191469E2,3.7770374E2,8.602927E1,6.601496E0,8.421742E1,5.4384227E0,1.8534048E0,1.39052E2,5.2862682E1,2.170595E2,1.6064423E2,2.8299692E1,5.7729572E1,2.7035027E0,3.8979936E0,1.092207E1,7.329536E1,4.2595453E0,1.178877E0,1.286383E2,1.0413694E1,4.937454E1,3.4881423E0,1.0986112E2,1.0719837E2,4.163394E1,1.19010284E2,1.5038513E1,1.3261179E1,4.389345E0,5.334023E1,2.2463477E0,1.651646E0,2.1825886E0,8.739481E0,5.4717636E0,6.782359E1,2.6395438E0,1.6200018E0,1.0712297E2,2.1515345E1,4.29604E0,6.1176543E0,4.8182484E1,1.1920553E0,1.2694256E0,2.2187166E0,8.079592E1,2.9065195E1,2.4562605E1,8.263577E1,3.1968903E1,9.665041E0,1.733746E1,1.0167283E2,5.576066E0,9.462447E0,9.891871E0,3.3693078E0,1.4711269E0,2.9182184E0,1.2706515E0,5.2069576E1,2.43576E0,6.3037205E0,2.1511977E0,3.320566E0,6.6640465E1,1.1831259E0,7.9692116E1,2.7430853E1,1.1800494E0,3.1159909E0,2.8292143E0,3.2884402E0],"tree_param":{"num_deleted":"0","num_feature":"18","num_nodes":"81","size_leaf_vector":"1"}},{"base_weights":[8.3806915E-3,-6.082347E-1,9.396916E-1,-3.1445682E-2,-8.065879E-2,6.125846E-1,1.1621976E0,-4.0146342E-1,1.24639906E-1,6.949763E-3,8.267299E-1,1.2497946E0,6.461759E-1,6.9932113E-3,-2.6355699E-2,4.4971627E-1,-2.4321357E-2,-3.3128014E-1,2.8340667E-1,-8.583735E-2,9.0925527E-1,1.3195945E0,7.7557325E-1,2.3279369E-1,9.6882206E-1,-2.1723462E-2,8.512423E-1,-5.090369E-1,3.2237205E-1,7.070735E-1,-1.6102959E-1,4.024666E-2,-2.7392525E-2,5.347319E-1,1.036344E0,7.5323546E-1,1.3637981E0,6.6837355E-2,4.316502E-1,-2.2906909E-2,4.049375E-1,1.0975109E0,-1.6712612E-3,4.971767E-2,6.6056936E-3,-2.940839E-2,6.7547536E-3,-1.691704E-2,3.6302444E-2,-1.9135201E-2,4.7885925E-2,-2.6206527E-2,1.2074128E-2,1.030828E-2,5.0901473E-2,3.8884494E-2,5.916637E-2,-5.2299927E-4,5.2474167E-2,6.882136E-2,4.8725456E-3,3.440533E-2,-7.41786E-3,3.1683188E-2,-1.0511058E-2,-5.8900873E-4,6.254771E-2],"categories":[],"categories_nodes":[],"categories_segments":[],"categories_sizes":[],"default_left":[0,0,0,0,0,0,0,0,0,0,0,0,0,0,0,0,0,0,0,0,0,0,0,0,0,0,0,0,0,0,0,0,0,0,0,0,0,0,0,0,0,0,0,0,0,0,0,0,0,0,0,0,0,0,0,0,0,0,0,0,0,0,0,0,0,0,0],"id":25,"left_children":[1,3,5,-1,7,9,11,13,15,17,19,21,23,-1,-1,25,-1,27,29,31,33,35,37,39,41,-1,43,45,47,49,51,-1,-1,53,55,57,59,-1,61,-1,63,65,-1,-1,-1,-1,-1,-1,-1,-1,-1,-1,-1,-1,-1,-1,-1,-1,-1,-1,-1,-1,-1,-1,-1,-1,-1],"loss_changes":[3.978592E2,4.4969177E0,1.9374802E1,0E0,1.1610782E0,1.475898E1,6.5665894E0,5.375961E-1,2.4137053E0,2.9689023E0,6.411331E0,3.5574188E0,3.2082396E0,0E0,0E0,3.1149845E0,0E0,1.8244154E0,3.40095E0,3.6872826E0,3.120758E0,1.9571838E0,3.3181143E0,1.6843837E0,1.8608379E0,0E0,4.5066214E-1,6.718478E-1,1.2237968E0,2.8584423E0,1.4908047E0,0E0,0E0,3.224465E0,1.2308083E0,2.468957E0,1.6146393E0,0E0,2.1830506E0,0E0,1.6273663E0,2.1531868E0,0E0,0E0,0E0,0E0,0E0,0E0,0E0,0E0,0E0,0E0,0E0,0E0,0E0,0E0,0E0,0E0,0E0,0E0,0E0,0E0,0E0,0E0,0E0,0E0,0E0],"parents":[2147483647,0,0,1,1,2,2,4,4,5,5,6,6,7,7,8,8,9,9,10,10,11,11,12,12,15,15,17,17,18,18,19,19,20,20,21,21,22,22,23,23,24,24,26,26,27,27,28,28,29,29,30,30,33,33,34,34,35,35,36,36,38,38,40,40,41,41],"right_children":[2,4,6,-1,8,10,12,14,16,18,20,22,24,-1,-1,26,-1,28,30,32,34,36,38,40,42,-1,44,46,48,50,52,-1,-1,54,56,58,60,-1,62,-1,64,66,-1,-1,-1,-1,-1,-1,-1,-1,-1,-1,-1,-1,-1,-1,-1,-1,-1,-1,-1,-1,-1,-1,-1,-1,-1],"split_conditions":[2.5491193E-1,2.3171048E-1,5.714286E-1,-3.1445682E-2,6.9258556E-2,3.2993278E-1,2.6249164E-1,1.4779573E-4,3.2049093E-1,4.426835E-1,1.9966364E-3,3.1232688E-1,3.0952382E-1,6.9932113E-3,-2.6355699E-2,5E-1,-2.4321357E-2,1E0,8.539752E-2,2.857143E-1,5.69369E-1,2.9795587E-1,3.2911542E-1,3.6998757E-3,8.6341906E-1,-2.1723462E-2,2.9199415E-1,4.3139514E-1,1.5856804E-2,3.1547618E-1,5.2380955E-1,4.024666E-2,-2.7392525E-2,7.640671E-1,4.295029E-2,1.4285715E-1,9.347828E-1,6.6837355E-2,5.446075E-2,-2.2906909E-2,1E0,1.6666667E-1,-1.6712612E-3,4.971767E-2,6.6056936E-3,-2.940839E-2,6.7547536E-3,-1.691704E-2,3.6302444E-2,-1.9135201E-2,4.7885925E-2,-2.6206527E-2,1.2074128E-2,1.030828E-2,5.0901473E-2,3.8884494E-2,5.916637E-2,-5.2299927E-4,5.2474167E-2,6.882136E-2,4.8725456E-3,3.440533E-2,-7.41786E-3,3.1683188E-2,-1.0511058E-2,-5.8900873E-4,6.254771E-2],"split_indices":[1,1,8,0,0,1,0,5,0,12,5,3,10,0,0,16,0,14,2,13,6,1,12,3,6,0,5,2,5,10,9,0,0,12,2,13,6,0,5,0,16,15,0,0,0,0,0,0,0,0,0,0,0,0,0,0,0,0,0,0,0,0,0,0,0,0,0],"split_type":[0,0,0,0,0,0,0,0,0,0,0,0,0,0,0,0,0,0,0,0,0,0,0,0,0,0,0,0,0,0,0,0,0,0,0,0,0,0,0,0,0,0,0,0,0,0,0,0,0,0,0,0,0,0,0,0,0,0,0,0,0,0,0,0,0,0,0],"sum_hessian":[6.908245E2,4.1584378E2,2.7498077E2,3.9997424E2,1.5869526E1,1.1284294E2,1.6213783E2,5.8198233E0,1.0049703E1,2.9746857E1,8.3096085E1,1.3739278E2,2.4745043E1,1.0750732E0,4.74475E0,6.7322946E0,3.3174086E0,1.3289534E1,1.6457323E1,6.8880267E0,7.620805E1,1.1821087E2,1.9181911E1,1.1601907E1,1.3143136E1,2.076864E0,4.6554303E0,1.0622148E1,2.667386E0,8.122992E0,8.3343315E0,2.0989602E0,4.7890663E0,2.062751E1,5.5580547E1,9.864325E0,1.0834655E2,6.191909E0,1.2990002E1,1.9826791E0,9.619227E0,1.1563349E1,1.5797874E0,3.5635428E0,1.0918875E0,9.5373745E0,1.0847731E0,1.0730073E0,1.5943786E0,1.4203936E0,6.7025976E0,4.2228265E0,4.111505E0,1.3128665E1,7.498845E0,2.2419249E1,3.3161297E1,3.0266457E0,6.837679E0,1.0719062E2,1.1559235E0,8.878087E0,4.1119146E0,6.990107E0,2.6291206E0,1.517328E0,1.00460205E1],"tree_param":{"num_deleted":"0","num_feature":"18","num_nodes":"67","size_leaf_vector":"1"}},{"base_weights":[-1.9568957E-2,-4.887142E-1,1.4090208E0,-2.8511906E-2,1.4616618E-1,1.8347851E0,1.1181439E0,4.8464277E-1,-4.0881237E-1,2.0129082E0,1.2446673E0,2.2503462E-1,1.2807137E0,-1.0359743E-1,8.0490154E-1,8.084624E-3,-4.6562245E-1,2.0652616E0,2.4775503E-2,-1.9834727E-2,1.5986241E0,-3.509572E-1,8.3299404E-1,5.254618E-1,1.4888886E0,-3.6596125E-1,5.4284626E-1,1.2609172E0,1.3867307E-1,7.996211E-3,-2.6614401E-2,1.0629097E-1,3.4642126E-2,2.9647788E-3,1.8277788E0,-2.4142966E-2,9.581865E-3,7.230303E-2,-1.8590584E-2,-1.4113466E-1,8.9323485E-1,1.6447052E0,5.2634144E-1,9.855622E-3,-2.4282865E-2,-1.5126087E-2,5.7328578E-2,7.513457E-3,8.186902E-2,-2.260641E-2,3.9215382E-2,2.9579878E-2,9.666649E-2,2.2705955E-2,-2.2416694E-2,-1.6707486E-2,5.7692647E-2,4.005486E-3,8.847686E-2,5.1072873E-2,-2.04109E-2],"categories":[],"categories_nodes":[],"categories_segments":[],"categories_sizes":[],"default_left":[0,0,0,0,0,0,0,0,0,0,0,0,0,0,0,0,0,0,0,0,0,0,0,0,0,0,0,0,0,0,0,0,0,0,0,0,0,0,0,0,0,0,0,0,0,0,0,0,0,0,0,0,0,0,0,0,0,0,0,0,0],"id":26,"left_children":[1,3,5,-1,7,9,11,13,15,17,19,21,23,25,27,-1,29,31,-1,-1,33,35,37,39,41,43,45,47,49,-1,-1,-1,-1,-1,51,-1,-1,-1,-1,53,55,57,59,-1,-1,-1,-1,-1,-1,-1,-1,-1,-1,-1,-1,-1,-1,-1,-1,-1,-1],"loss_changes":[3.0022058E2,1.7534927E1,1.1663269E1,0E0,7.55523E0,2.0553436E0,9.636162E0,4.7527046E0,5.7375455E-1,1.4955902E0,8.000977E0,4.403188E0,8.275963E0,1.8307903E0,4.73542E0,0E0,6.7916775E-1,1.0483246E0,0E0,0E0,3.6411476E0,5.743155E-1,4.9750056E0,3.5568988E0,5.8263702E0,5.973298E-1,1.9702528E0,3.714075E0,3.2882748E0,0E0,0E0,0E0,0E0,0E0,5.911064E-2,0E0,0E0,0E0,0E0,1.2713856E0,3.314093E0,7.266838E0,3.9739864E0,0E0,0E0,0E0,0E0,0E0,0E0,0E0,0E0,0E0,0E0,0E0,0E0,0E0,0E0,0E0,0E0,0E0,0E0],"parents":[2147483647,0,0,1,1,2,2,4,4,5,5,6,6,7,7,8,8,9,9,10,10,11,11,12,12,13,13,14,14,16,16,17,17,20,20,21,21,22,22,23,23,24,24,25,25,26,26,27,27,28,28,34,34,39,39,40,40,41,41,42,42],"right_children":[2,4,6,-1,8,10,12,14,16,18,20,22,24,26,28,-1,30,32,-1,-1,34,36,38,40,42,44,46,48,50,-1,-1,-1,-1,-1,52,-1,-1,-1,-1,54,56,58,60,-1,-1,-1,-1,-1,-1,-1,-1,-1,-1,-1,-1,-1,-1,-1,-1,-1,-1],"split_conditions":[3.0552822E-1,2.3582092E-1,2.5E-1,-2.8511906E-2,5.833333E-1,7.553599E-1,3.6998757E-3,6.322504E-2,5.357143E-2,7.598088E-1,2.344138E-1,4.2857143E-1,3.5455063E-1,5E-1,4.5535713E-1,8.084624E-3,2.4327545E-1,9.1547686E-1,2.4775503E-2,-1.9834727E-2,1.3401832E-1,8.4565765E-1,6.845238E-1,3.353361E-2,2.4895468E-1,5.052035E-1,3.2461724E-1,3.8435102E-1,1.16528094E-1,7.996211E-3,-2.6614401E-2,1.0629097E-1,3.4642126E-2,2.9647788E-3,1.0714286E-1,-2.4142966E-2,9.581865E-3,7.230303E-2,-1.8590584E-2,4.0871918E-1,4.71113E-1,1.2575473E-3,6.4285713E-1,9.855622E-3,-2.4282865E-2,-1.5126087E-2,5.7328578E-2,7.513457E-3,8.186902E-2,-2.260641E-2,3.9215382E-2,2.9579878E-2,9.666649E-2,2.2705955E-2,-2.2416694E-2,-1.6707486E-2,5.7692647E-2,4.005486E-3,8.847686E-2,5.1072873E-2,-2.04109E-2],"split_indices":[2,2,15,0,15,6,3,1,10,11,11,10,2,15,10,0,2,12,0,0,12,12,10,1,1,6,12,7,3,0,0,0,0,0,10,0,0,0,0,11,6,4,8,0,0,0,0,0,0,0,0,0,0,0,0,0,0,0,0,0,0],"split_type":[0,0,0,0,0,0,0,0,0,0,0,0,0,0,0,0,0,0,0,0,0,0,0,0,0,0,0,0,0,0,0,0,0,0,0,0,0,0,0,0,0,0,0,0,0,0,0,0,0,0,0,0,0,0,0,0,0,0,0,0,0],"sum_hessian":[4.4591855E2,3.3617685E2,1.09741714E2,2.980115E2,3.8165344E1,4.2388603E1,6.735311E1,2.3785507E1,1.4379838E1,3.0708439E1,1.1680164E1,1.0739239E1,5.6613873E1,8.623212E0,1.5162295E1,1.1350558E0,1.3244782E1,2.9335257E1,1.3731812E0,2.0505679E0,9.629596E0,5.731675E0,5.007564E0,1.2994474E1,4.3619396E1,6.442402E0,2.1808097E0,8.471298E0,6.690997E0,1.1408526E0,1.21039295E1,2.7569786E1,1.7654706E0,1.4108799E0,8.218717E0,4.6993723E0,1.0323029E0,3.1860805E0,1.8214837E0,4.83933E0,8.155144E0,3.6932144E1,6.6872516E0,1.0160289E0,5.426373E0,1.1164316E0,1.0643781E0,2.4987135E0,5.9725847E0,3.6503675E0,3.0406294E0,1.1661359E0,7.0525804E0,1.48453E0,3.3548002E0,1.3789266E0,6.7762175E0,2.8502312E0,3.4081913E1,4.310584E0,2.3766677E0],"tree_param":{"num_deleted":"0","num_feature":"18","num_nodes":"61","size_leaf_vector":"1"}},{"base_weights":[1.0582969E-2,-5.271756E-1,1.1908015E0,-2.8967474E-2,2.0891221E-1,-4.617093E-1,1.2996442E0,1.6940216E0,-2.7664915E-2,6.4332443E-3,-2.7382616E-2,5.8151436E-1,1.4224639E0,9.5827796E-2,7.747267E-1,1.7656137E0,-2.7605364E-2,-2.60049E-2,1.515287E0,7.1037166E-2,-1.5351728E-2,1.8688064E0,2.5862962E-2,1.6067464E0,5.246769E-1,4.1805826E-2,1.01752855E-1,8.581571E-2,3.398497E-2,-1.6722983E-2,5.8570605E-2],"categories":[],"categories_nodes":[],"categories_segments":[],"categories_sizes":[],"default_left":[0,0,0,0,0,0,0,0,0,0,0,0,0,0,0,0,0,0,0,0,0,0,0,0,0,0,0,0,0,0,0],"id":27,"left_children":[1,3,5,-1,7,9,11,13,-1,-1,-1,15,17,-1,19,21,-1,-1,23,-1,-1,25,-1,27,29,-1,-1,-1,-1,-1,-1],"loss_changes":[3.282454E2,1.3766647E1,2.9717667E1,0E0,2.8390396E1,6.1547947E-1,1.2592102E1,2.483139E-1,0E0,0E0,0E0,3.3072525E1,2.4090729E1,0E0,2.763055E0,5.706749E-1,0E0,0E0,1.0354706E1,0E0,0E0,1.2519455E-1,0E0,1.0277161E1,7.0213113E0,0E0,0E0,0E0,0E0,0E0,0E0],"parents":[2147483647,0,0,1,1,2,2,4,4,5,5,6,6,